
## 1

# 0
0.742291|0.129719|0.356930|0.500918|0.155803|-0.644528|-0.906511|-0.591534|0.225622|0.201559|-0.507906|-0.426330|0.928189|-0.549999|-0.589650|-1.001112|-0.614280|-0.588691|-0.991284|0.288243|-0.337002|-0.811334|-0.954353|0.524054|-0.300040|0.936607|-0.927242|-0.623618|-0.328844|0.160424|-0.651414|-0.577197|-0.690574|0.755014|0.907478|0.445946|-0.929518|-0.982789|0.838341|0.329275|0.179998|-0.620065|0.930636|0.100408|-0.173228|-0.632349|0.054473|0.272852|-0.176369|0.102518|-0.438462|0.513559|0.341302|-0.353254|0.015873|-0.888596|-0.411015|0.107735|-0.582356|0.263866|-0.751115|-0.205965|0.686669|-0.476720|-0.529635|1.146050|0.953785|-0.383851|0.585152|0.843550|1.146396|-0.184483|-0.780509|0.869543|0.915925|0.063722|-0.748088|0.000307|-0.663426|0.097170|-0.892908|-0.101888|-0.417172|0.462159|0.515299|0.419291|0.503421|-0.871789|-0.298028|0.921065|0.517471|-0.490112|-0.271143|0.078745|0.475585|0.688330|-0.310864|0.460729|0.508306|-0.796530|0.300284|0.802639|-0.018267|0.519775|0.672183|0.043684|-0.416503|0.945722|-0.933482|-0.079929|0.040701|-0.812625|0.660866|0.625720|0.606175|0.364957|0.224422|-0.108996|0.491251|1.235102|0.074022|-0.330304|-0.151857|0.789122|0.962073|-0.676272|0.072860|-0.348791|0.712732|-0.109817|-0.032053|0.084741|-0.318375|-1.337358|-0.395483|-0.634995|0.566175|0.188014|-0.698242|0.214897|-0.924076|0.353619|0.402273|1.143453|-0.020660|0.051807|0.289308|-0.802918|-0.795237|-0.219440|-0.884483|0.278785|-0.151179|-0.104856|0.080757|0.625961|0.287387|-0.900516|-0.722830|0.071844|-0.033451|0.240267|-0.843415|0.682490|0.345317|0.218680|-0.952505|-0.506304|0.949115|-1.266706|-0.046534|-1.756388|0.711841|0.110866|0.983468|-0.308819|-0.837327|0.272776|-0.105058|-0.632563|-0.989437|0.010459|0.646222|0.717223|0.987494|-0.285872|0.343184|-0.383838|-0.186387|0.620354|-1.093061|0.803280|-0.134530|-0.510066|0.485770|-1.154390|-0.092697|0.533265|-0.312967|0.200152|0.891487|-0.586923|0.257352|0.603328|0.411773|0.240820|-0.705491|0.681632|-0.486404|-0.223949|-0.954152|-0.433068|-0.800090|0.700275|-0.715845|-0.825972|-0.585596|0.627339|0.435534|0.228016|0.264811|0.712835|0.031297|-0.886838|-0.996770|-0.482933|-0.676050|0.509853|-1.525439|0.028433|-0.287376|0.921377|0.441511|0.967357|0.545147|-0.034546|0.208177|0.839656|-0.331455|0.721773|0.029107|-0.293875|-0.709132|0.229018|-0.593600|-0.427141|0.403046|-0.424882|-0.799802|-0.161420|-0.951180|0.447890|-0.349009|0.119020|0.561053|-0.192331|0.419611|0.885002|-0.623867|0.647515|-0.086564|0.086138|0.589335|-0.645053|0.053494|0.134482|0.356604|-0.738329|-0.025862|0.972472|0.983444|-0.996754|-0.289587|-0.773132|0.232263|0.084997|-0.150723|-0.364691|0.905801|0.045205|-0.032294|0.954620|-0.506904|-0.918648|0.034737|-0.894321|-0.052369|-0.368080|0.939151|0.748319|-0.720564|-0.147413|-0.590099|0.868770|0.249203|0.463396|0.003252|-0.472066|0.725067|1.007822|-0.499594|0.708510|0.980636|0.179003|0.795972|0.212899|-0.597118|-0.174334|0.763656|-0.830199|0.870871|0.322098|-0.875579|-0.636033|0.403450|0.135889|-0.581885|-0.648920|0.791079|-0.642734|0.398756|-0.929486|0.207651|-1.283996|0.939285|-0.582614|0.548141|-0.057463|-0.054680|0.273207|-0.082728|0.445727|-0.018282|-0.099437|-0.375270|-0.037624|-0.886537|-0.111270|0.788042|0.961672|0.013175|0.658913|-0.441178|0.182952|-0.977120|-0.316632|-0.657890|-0.559005|0.038300|-0.866812|-0.201740|-0.286856|-0.788214|-0.991887|-0.202111|-0.857013|-0.574501|-0.697893|0.085524|0.370819|0.619237|-1.048905|-0.183454|-0.399046|-0.093985|0.441276|0.563330|0.019478|-0.681893|0.351372|-0.018851|0.388536|0.010285|-0.735081|-0.486437|0.033165|-0.047862|-0.086402|0.474159|0.990437|0.036265|-0.727580|-0.296419|0.250489|-0.719467|0.501470|0.393476|-0.293968|0.847499|-0.520999|-0.923149|0.454464|-0.515548|-0.106603|-0.932310|0.390467|-0.681037|0.631021|-0.590055|-0.350400|-0.017607|0.391094|-0.946785|0.992678|0.656013|-0.375297|0.025843|-0.391850|0.538301|-0.499998|-0.401412|-0.414913|-0.227578|0.302169|0.839330|0.052955|-0.196362|0.229052|0.757960|-0.348863|0.708972|0.835839|-0.882127|-0.807494|-0.270764|-0.814437|0.582973|0.063909|0.816584|0.992918|0.728587|-0.201023|0.384012|0.781802|-0.208345|0.040025|-0.593495|0.771593|0.648175|0.944806|-0.726383|-0.770773|-0.470107|0.089923|0.548931|-0.634531|-0.857122|-0.647431|0.594521|0.901865|0.003706|0.302575|0.737704|0.121579|0.495080|-0.533060|0.307143|0.078054|0.530848|0.123726|0.117922|0.259435|0.931991|-0.545016|0.041237|-0.285642|0.495008|0.447743|-0.468144|0.143183|0.392548|-0.150643|0.389946|0.922441|0.939279|-0.061123|-0.712090|-0.917843|0.291446|0.882432|0.984023|-0.704847|0.185006|0.688433|0.414350|-0.319913|-0.811334|-0.276125|0.758140|0.719515|0.847601|-0.170888|-0.021050|0.770304|0.284095|-0.979813|-0.515337|-0.220897|0.467930|0.016519|0.922287|-0.139522|0.865876|0.312232|-0.217080|0.805155|-0.752751|0.070830|0.887312|0.542556|-0.046739|0.871335|0.837709|-0.861732|0.593062|0.254441|-0.181646|0.781729|0.978315|-0.423505|0.501243|0.825916|0.405606|-0.519807|0.596221|-0.310298|-0.499619|-0.919116|0.468805|0.964616|0.097403|0.391092|-0.171211|-0.036722|-0.296676|0.611709|-0.231567|-0.045566|-0.317461|-0.344255|-0.503010|0.635800|-0.472919|-0.665302|0.774068|-0.879857|0.589139|-0.407578|0.901871|0.567454|0.168917|0.403115|0.393370|-0.425477|0.883308|-0.010409|0.264225|-0.616311|0.070475|-0.266970|-0.648001|-0.832123|-0.875879|0.180788|0.131155|-0.172554|-0.207503|0.899588|0.781879|0.475036|-0.444666|-0.721131|0.110836|0.082414|-0.386433|-0.115097|0.202557|-0.797294|0.477325|0.104428|0.770160|-0.353758|-0.492457|0.163530|0.220765|-0.609149|-0.846879|-0.515010|-0.225461|0.223596|0.218019|0.126538|0.391473|0.342141|-0.692673|-0.477372|-0.830413|0.099824|-0.577784|0.951466|-0.425140|-0.022450|-0.769665|0.685695|-0.940036|-0.156098|-0.429401|0.262521|0.046608|-0.952076|-0.633051|-0.183232|-0.305834|-0.125508|0.980298|0.914931|0.265343|-0.866581|-0.600079|-0.960118|0.357014|0.617940|0.166420|-0.251513|-0.039919|0.473747|0.271116|0.129668|-0.426429|0.693332|0.081134|0.148431|-0.329118|0.311469|-0.165874|-0.269153|-0.844629|0.404725|0.993368|0.201979|0.452649|-0.639683|-0.981253|-0.853184|0.234809|0.999045|-0.938253|-0.499848|-0.867537|-0.538332|-0.459966|0.489478|-0.920392|0.706454|-0.762035|0.039689|0.180201|0.509081|-0.830643|0.753772|0.202413|0.250491|-0.097797|0.873295|-0.438041|0.736329|-0.395859|-0.282670|0.141055|-0.402491|0.919310|-0.406296|-0.042174|0.938056|-0.259480|-0.807364|0.937101|-0.197733|-0.307212|-0.930436|0.263934|0.232822|0.559042|0.343542|-0.060723|0.797007|-0.616768|-0.880522|0.306088|-0.447412|0.873250|-0.491500|0.803079|-0.224546|-0.618205|-0.634962|-0.488217|-0.014064|0.082369|0.652838|0.583445|0.001678|-0.753458|-0.458728|-0.060265|-0.012939|-0.266093|-0.123164|0.789328|0.426695|-0.053600|0.053262|-0.340482|-0.494558|-0.603195|0.598794|-0.697551|-0.219964|0.718272|0.608537|0.332625|0.591523|-0.882963|0.135703|-0.633024|-0.501168|0.500742|-0.121240|0.484769|-0.416889|-0.468403|0.068214|0.584789|-0.221861|0.609486|-0.475476|0.765200|-0.656607|0.401359|0.554528|0.770089|-0.652241|-0.392210|-0.570394|-0.146799|0.004595|-0.971600|0.155650|0.784631|0.746673|-0.235814|0.117256|0.338195|-0.118777|-0.747041|0.705172|0.380056|0.753701|-0.416069|-0.135176|-0.663188|0.115528|0.933038|0.921600|0.893667|0.542524|-0.553876|0.658868|0.885917|0.847483|0.213396|0.656005|-0.804758|0.821186|-0.914388|0.048443|-0.174219|-0.885988|-0.795908|-0.389587|0.860685|-0.031721|0.727668|0.198880|
# 1
0.980627|-0.095948|0.229558|0.734328|0.487983|-0.905618|-0.928860|-0.396489|-0.972678|0.992816|-0.505434|0.571092|-0.561471|-0.849718|0.434232|-0.723836|0.368252|0.113399|-0.522155|0.190951|0.186401|0.532414|-0.981887|0.311880|0.734125|-0.373177|0.172173|-0.297596|-0.629168|-0.628947|-0.447706|-0.664882|0.275015|0.779670|-0.929444|-0.236913|0.874198|-0.859413|0.366727|0.906429|-0.863941|0.863777|0.475644|-0.427808|-0.983344|-0.090963|-0.137914|0.389266|-0.959067|0.340129|-0.420106|0.235051|-0.129838|-0.403696|-0.450101|-0.388193|0.226382|0.728114|0.306690|0.577618|-0.906495|0.858596|0.912736|0.374120|0.639900|1.107857|-0.874376|0.515905|-0.873611|0.481104|0.512339|-0.743903|0.361693|-0.107623|-0.171712|0.381517|0.801896|0.690770|-0.229218|0.862378|-0.002333|0.350676|0.100788|0.897118|0.944915|0.570733|-0.498595|0.170108|0.373003|0.808095|-0.099296|0.130305|0.675152|-0.339538|-0.165887|0.453468|-0.357355|-0.034570|-0.582997|-0.219832|-0.536654|-0.758175|-0.193577|0.825039|0.134202|0.860418|0.206556|-0.044353|0.536627|0.977338|-0.191907|-0.436416|-0.088550|0.918813|-0.392708|0.262709|0.569499|-0.049679|-0.554897|-0.215479|-0.229798|0.193157|-0.591860|-0.563107|0.853290|0.242253|0.743259|-0.504066|-1.149601|-0.433700|0.261348|-0.328971|-0.191676|-0.598627|-0.503931|0.942327|-0.977782|0.702624|-0.101692|0.669286|0.667152|0.715998|-0.767131|0.010645|0.634811|-0.306429|-0.717029|0.204770|0.655678|-0.271926|-0.853433|-0.574120|0.955700|-0.554366|-0.130635|0.774191|0.796960|-0.393582|-0.729874|-0.995357|0.170990|0.528425|-0.324328|0.980842|0.814333|0.189492|0.923169|0.946992|-0.125635|-0.185003|0.493046|-0.411084|-0.462859|0.849147|0.562304|-0.828048|-0.457281|0.845275|0.376262|-0.801603|-0.427117|0.522828|-0.375723|-0.505749|-0.918324|0.487050|-0.731558|0.681478|-0.906532|-0.461432|0.907198|0.266186|-0.929958|-0.445190|0.247028|0.906144|0.836457|0.170197|0.831646|-0.399083|0.991340|0.447645|0.155244|-0.471519|0.051569|-0.282452|-0.299568|0.839626|-0.437177|-0.884367|-0.962507|0.136172|0.599522|-0.337816|0.630423|0.677057|-0.850765|0.898866|0.551552|-0.757297|-0.561980|0.184271|0.508889|-0.492524|0.601221|-0.244083|-0.608149|0.712051|0.985133|-0.776782|-0.686661|0.920331|0.670863|0.468212|-0.554065|-0.032345|-0.814240|0.146367|-0.443145|-0.251417|0.223061|-0.154927|0.883995|-0.177416|0.507257|0.515179|-0.500359|0.713354|0.414044|-0.948807|0.899194|0.851478|0.485934|0.411464|-0.641046|0.218541|-1.252139|-0.249196|0.179434|-0.909886|-0.025978|0.492402|-0.992432|-0.355115|-0.039386|-0.546497|0.655928|0.146374|0.599871|-0.580295|0.894957|-0.177068|0.053809|0.783182|0.645516|-0.227966|0.296025|-0.854843|-0.571474|-0.291065|-0.770306|-0.672279|-0.439587|0.678232|0.735804|-0.071137|0.145615|0.899803|0.670171|-0.952955|0.989918|-0.355807|0.817452|0.997486|0.287369|-0.221934|-0.549010|-0.098383|0.924440|-0.952922|0.321321|0.819397|-0.126208|-0.413901|0.636616|-0.480692|0.358352|-0.106001|-0.331714|0.786660|0.602933|-0.139185|-0.885620|-0.836654|-0.460953|0.853549|0.082713|0.684663|0.749987|-0.247117|-0.971864|0.739905|0.397272|0.856654|0.737391|-0.313846|-0.394770|-0.811620|0.587771|-0.470330|-0.758952|-0.090908|-0.650933|0.113033|0.495191|0.948175|0.632342|-0.146676|-0.157826|-0.703193|-0.357104|-0.554893|-0.223746|-0.245636|-0.391547|0.697248|-0.395452|0.691166|0.381331|-0.645465|-0.555951|0.391044|-0.907882|0.841126|0.218208|0.831830|-0.472721|0.776393|-0.979789|-0.884950|-0.646892|-0.750597|0.024142|-0.297825|0.372484|-0.480667|-0.349650|0.004826|0.373798|0.492524|0.301632|-0.987359|0.937631|-0.540746|-0.230552|-0.453916|-0.844078|0.371553|-0.762750|0.537253|0.721670|-0.318701|-0.071703|0.820527|-0.477575|-0.853495|0.652357|0.049704|0.969943|0.672567|0.164754|-0.682693|0.932019|-0.811104|0.025226|0.304503|-0.308516|0.675576|-0.690671|-0.921423|0.168100|0.610961|-0.906472|0.105731|-0.929785|-0.139467|0.651814|-0.773863|-0.767914|0.889064|0.763391|0.958174|-0.429637|-0.308312|0.777669|0.092788|-0.161807|0.431057|-0.855499|-0.191865|0.103864|0.307245|0.131187|0.035643|0.496141|-0.843587|-0.659854|-0.795630|0.831989|-0.350525|-0.714743|0.000089|-0.739564|-0.621215|-0.894181|-0.669349|0.239318|0.760071|-0.443212|0.471405|0.633920|-0.683534|0.429579|-0.782939|0.011867|0.208279|0.309849|0.850059|-0.360663|0.452341|-0.341805|0.742962|-0.240414|0.789381|-0.221395|-0.744273|0.945794|0.118751|-0.539902|0.777783|0.762027|-0.254646|-0.222978|-0.971338|0.124139|-0.116308|-0.640687|-0.636542|-0.358674|-0.083898|0.834863|-0.711976|0.236281|0.264441|-0.494915|-0.751853|-0.527279|0.814934|-0.901793|0.112058|0.267274|-0.243598|-0.144981|-0.981366|-0.453927|0.633624|-0.717412|-0.508423|-0.247625|-0.257315|-0.730639|-0.479399|0.488039|0.047233|-0.450737|-0.387821|0.930925|-0.091424|-0.024364|-0.427750|0.824678|-0.189501|-0.139726|0.060958|-0.925060|0.365359|0.304431|-0.452339|0.180293|0.407313|0.659718|-0.552433|-0.836286|-0.485262|-0.525573|-0.290503|-0.851638|-0.242985|0.201075|-0.099264|0.499700|0.470436|0.421337|-0.012261|-0.482331|0.970600|0.599918|-0.551407|-0.120823|-0.424933|0.020844|-0.296146|0.386053|0.881117|0.764813|0.460994|0.246476|0.073919|-0.991345|-0.573231|-0.518769|0.668373|-0.125664|-0.355054|-0.816889|0.348763|0.354443|-0.668528|-0.894222|-0.444482|0.232209|0.605478|-0.974046|-0.346454|-0.406783|-0.456377|-0.375853|-0.806865|-0.007784|0.503323|-0.231310|-0.986941|-0.792822|-0.845257|0.894177|0.971991|0.615737|0.140653|0.045909|0.624391|0.567422|0.527141|0.292764|-0.558242|-0.827914|0.475875|0.790521|0.526530|0.807347|0.896299|-0.917952|0.039556|0.501777|-0.891998|0.693102|-0.905006|-0.348376|-0.682752|-0.711870|0.643840|0.820571|0.056819|0.656900|-0.972251|0.211562|0.551076|0.999740|-0.172701|-0.308270|0.045649|-0.548310|-0.740849|-0.427210|0.744454|-0.299091|-0.255124|0.220329|-0.508570|-0.728594|0.027675|-0.612271|-0.646546|-0.932769|0.889507|-0.538545|0.760333|0.984501|0.113079|-0.922419|-0.727370|-0.243081|0.898152|0.329450|-0.586181|0.925901|-0.458988|0.964895|0.925641|0.368310|-0.343375|-0.028710|0.820000|-0.084224|0.544079|0.564454|0.616686|-0.711045|-0.215218|-0.891884|-0.439639|0.812458|-0.504155|-0.086185|0.879689|-0.614648|0.375270|0.640021|-0.630147|-0.511651|0.717602|-0.357517|0.245268|0.615754|0.971933|0.659087|0.541655|-0.487055|0.623983|0.467296|0.881255|-0.719393|-0.561415|0.701255|0.196384|0.982664|0.265708|-0.186931|-0.728380|-0.949510|-0.078815|-0.168019|0.862948|0.417031|0.745795|0.742637|0.802383|0.121065|0.382658|-0.827765|0.609414|0.100259|-0.185281|-0.145317|-0.283987|-0.213349|-0.486230|-0.742332|0.299596|-0.862248|0.724964|0.180851|-0.581640|-0.836451|-0.117895|0.614743|-0.853787|-0.852186|-0.572187|-0.582167|-0.801696|0.348998|0.249814|-0.938748|-0.233971|-0.004391|0.803889|-0.431589|-0.883326|0.186547|-0.259353|0.726089|-0.713194|0.555365|-0.419229|0.002819|-0.657983|0.094541|0.260487|0.641613|0.232293|-0.014549|-0.177537|0.650653|0.149000|0.704569|0.265397|0.295214|0.852383|0.693210|0.713047|-0.949313|0.042208|-0.037139|-0.888061|0.808236|0.958470|0.915828|-0.623352|-0.924855|0.102374|0.117294|0.801233|0.389180|-0.327341|-0.617996|-0.608000|0.014676|0.476545|0.652487|-0.343711|-0.291161|-0.362062|0.478752|-0.640508|0.786938|0.183321|0.624889|0.082152|0.035704|0.318098|-0.204802|0.086390|-0.639694|0.758059|0.198329|-0.831458|0.716529|0.114157|-0.454810|0.791674|-0.783469|0.662484|0.592907|0.605712|-0.664857|0.974911|0.997711|0.349820|0.451457|0.650199|-0.993892|-0.839704|-0.711863|0.484861|
# 2
-0.924925|-0.331818|-0.855323|0.157226|0.703886|0.462775|0.952425|-0.209724|0.810406|0.751221|0.972259|0.974254|0.435977|0.101663|-0.490287|0.218448|0.267007|-0.798169|-0.194722|-0.089573|-0.440714|-0.234751|-0.103191|0.882101|-0.762039|-0.427084|0.890368|-0.601743|-0.194216|0.375229|-0.098469|-0.063873|-0.934145|0.084704|-0.917859|0.747297|-0.494960|-0.954221|-0.472542|-0.664117|0.742299|-0.473821|-0.669341|0.183276|0.606463|-0.129756|-0.640435|-0.051764|0.076309|0.213556|0.873242|0.644471|-0.999939|-0.204041|0.495009|-0.759186|0.357979|0.381149|-0.363721|-0.770073|-0.239440|0.554324|0.166054|-0.248335|-0.454341|0.699364|-0.477926|0.142541|0.264200|0.114847|0.665704|0.061449|0.615067|0.831318|-0.755275|0.244008|-0.251505|-0.375874|-0.807756|0.784639|0.870705|-0.934514|0.395389|0.860305|-0.160561|-0.311001|-0.901672|-0.769681|-0.687314|-0.265393|-0.959756|0.067201|-0.738314|0.626301|0.840398|-0.358842|-0.114291|-0.608287|-1.228056|-0.967562|0.480600|0.539636|0.616576|0.095667|0.370954|0.449307|-0.660325|-0.920716|-0.856242|-0.468081|0.871213|-0.995997|-0.351408|0.259312|0.245733|0.465298|-0.850290|0.797143|0.689168|-0.373361|-0.302758|-1.109160|0.461866|-0.013826|0.775715|0.302265|0.946489|-0.338576|0.665660|0.940668|-0.147680|0.174578|0.486956|-1.420897|-0.729755|-0.148743|0.661720|-0.390080|-0.086928|0.745495|0.127591|-0.205535|0.749497|0.911700|-0.946223|0.613805|0.198094|-0.802696|0.576440|-0.112738|-0.371029|-0.726318|-0.277919|-0.938993|0.255530|-0.187608|0.393102|0.152006|0.473816|0.087079|0.075624|-0.674581|-0.738343|-0.427022|-0.569198|0.177795|0.424235|-0.967461|0.141822|-1.312908|0.426500|-1.147798|0.149241|0.527531|-0.977094|0.203018|0.141336|0.220999|0.406504|-0.282224|-0.939685|-0.964524|-0.008542|0.144938|-0.875812|-0.748686|0.957330|0.381996|0.403321|0.431146|-0.739755|-0.504005|0.757283|-0.131849|0.068972|-1.548258|-0.253814|-0.506792|-0.779291|-0.458125|-0.152016|0.998657|-0.174464|0.997225|1.156297|-0.151558|0.200243|-0.340505|-0.930559|-1.009827|0.369916|-0.822298|-0.357777|-0.623242|0.322640|-0.231464|-0.371928|0.279969|-0.712049|-0.968607|-0.257671|0.067708|-0.472612|-0.531602|0.747529|0.596360|-0.343517|0.162649|-1.515646|-0.122893|0.715440|-0.086701|-0.124236|-0.469940|-0.065223|-0.598048|0.378502|-0.864980|0.060791|0.447943|-0.258233|-0.545225|0.616505|0.383989|-0.168467|-0.051716|-0.847475|0.505227|-0.771746|-0.559524|0.490999|-0.060631|0.361717|-0.971442|0.407767|-0.126555|0.795483|-0.935749|-0.739833|0.704314|-0.058642|0.964691|-0.358134|0.817122|-0.505248|0.576643|-0.373355|0.873253|0.711663|0.288549|0.321196|-0.546570|0.715598|-0.093909|0.837419|-0.425142|0.904899|0.989944|-0.965537|-0.876622|-0.954573|0.525462|0.062747|0.765341|0.543848|-0.369806|-0.137141|0.158595|-0.465234|0.805961|-0.137091|0.476123|0.087717|0.504775|0.354619|0.582469|0.081418|0.512319|0.455722|-0.154161|-0.199131|-0.223082|0.246511|-0.455807|0.891892|0.083930|0.299188|0.618883|-0.028076|0.153514|0.742261|0.504295|-0.321024|-0.194992|0.269636|-0.797302|0.275522|-0.867505|0.381419|0.810288|0.070935|-0.755673|0.283514|-0.871688|0.749102|-0.420343|0.925707|-0.169479|-0.908024|0.381429|0.613751|-0.107156|-0.841653|-0.129887|0.437037|0.882105|0.954043|-0.443912|0.500988|0.027917|0.651796|0.243248|-0.692786|-0.611422|-0.951744|0.800287|-0.388598|0.323778|0.934342|0.992821|0.134066|0.189862|-0.741890|-0.579522|0.533100|0.986251|0.000134|0.460788|-0.183229|0.092110|-0.159764|-0.604157|0.984954|-0.001418|0.310486|0.421991|-0.119313|0.264528|0.962962|-0.618325|-0.707555|0.687682|0.624923|-0.175344|-0.968301|0.673179|-0.373497|-0.312338|-0.003043|-0.439155|-0.351947|-0.868976|0.750708|-0.082369|-0.448499|0.283808|-0.096118|0.551635|-0.257385|0.720654|-0.356255|0.575345|-0.838973|-0.371301|-0.418567|0.471512|-0.981607|0.462121|-0.263960|-0.978357|0.843796|0.028485|0.716452|0.468719|0.853141|0.792711|0.141897|-0.520355|-0.519626|-0.861145|0.040490|0.160857|-0.730122|-0.208802|-0.907468|-0.178621|-0.924994|-0.017630|-0.603333|-0.182379|-0.285915|0.016760|-0.599528|-0.135949|0.645459|-0.018095|-0.664437|0.696149|-0.555974|0.071603|0.724919|-0.712179|-0.899912|0.441371|0.756540|0.953230|0.234082|-0.143099|-0.567125|0.714456|0.005547|0.477207|-0.124688|0.307170|-0.735437|-0.046200|-0.871451|-0.660431|0.936171|-0.498436|0.157190|-0.360805|0.518324|0.557662|0.503245|0.163783|-0.460433|0.838808|-0.140068|-0.016408|-0.017980|-0.415149|0.297427|0.010499|-0.973778|0.027953|-0.036271|0.260304|0.926391|0.396604|-0.025240|-0.036317|-0.130031|0.850072|-0.729147|0.134531|-0.196128|-0.600598|0.474100|-0.259957|-0.099034|-0.368710|0.379238|-0.587835|-0.813592|-0.117517|0.583072|-0.271481|-0.278709|-0.556996|0.712111|0.631702|0.027855|-0.016475|-0.357799|0.054077|-0.988522|0.605930|-0.685619|0.937869|0.002534|0.289141|-0.098449|0.872502|0.139213|0.172404|0.006538|0.943085|0.571806|-0.518866|-0.316872|-0.527228|0.112424|-0.937635|-0.107938|0.301376|-0.055152|-0.524866|-0.970105|0.666139|-0.081862|0.742006|0.297841|0.945994|-0.274469|0.940042|0.000071|-0.262991|0.545972|0.305637|-0.325123|-0.451495|-0.396408|0.576429|-0.578992|0.742805|-0.251167|0.428041|0.685890|-0.679361|0.909175|-0.630982|-0.206589|0.021600|-0.568617|0.685472|-0.677024|0.376231|-0.839394|-0.647129|0.042370|0.078744|-0.905123|-0.659789|0.024738|-0.179592|-0.719747|-0.975191|0.557417|0.826225|0.339260|-0.767706|-0.625270|0.942853|0.808723|-0.204262|0.685658|-0.442444|-0.776221|0.371548|-0.121805|-0.867045|0.740565|0.671606|0.154555|-0.828052|0.357078|0.477531|0.548180|0.517684|0.830402|-0.409450|-0.403571|0.925280|-0.069239|0.621167|-0.254312|0.211014|0.645975|-0.696896|0.037239|-0.014764|-0.464602|0.411969|-0.071911|-0.655879|-0.792293|-0.386253|-0.098323|-0.568514|0.985294|0.779872|-0.435559|0.725860|0.451478|0.718996|0.897808|-0.191444|0.196526|0.445988|-0.673760|0.026929|-0.963462|-0.077331|-0.047792|-0.032701|-0.456164|0.697896|-0.821687|-0.810189|-0.999000|0.215552|0.175047|-0.463602|-0.372479|-0.896864|-0.119480|-0.164772|-0.283118|0.782197|0.266714|-0.297824|0.562069|0.831155|-0.571964|0.013547|0.550150|-0.674156|0.822102|-0.253323|0.771831|-0.851657|0.773606|0.808369|0.071012|-0.274186|-0.224332|0.614847|-0.576291|-0.046019|0.804658|-0.575291|-0.830468|-0.020295|-0.038893|-0.202947|0.082841|0.841627|0.632281|0.799723|0.623824|-0.101005|-0.498101|0.185893|-0.269850|-0.070065|-0.800561|-0.719699|0.255778|-0.978458|0.026978|0.027609|-0.830116|-0.199417|-0.164022|0.240896|0.526397|0.611646|-0.144257|0.950106|-0.434373|-0.339599|-0.625185|-0.264841|0.640106|0.335923|0.532212|-0.277053|0.177550|0.164494|-0.477331|-0.198627|-0.936511|0.024568|0.987266|-0.206361|0.954503|-0.813295|0.073940|0.210281|-0.791753|-0.899082|-0.762110|-0.621868|-0.098499|0.073868|0.619028|-0.572102|-0.314486|-0.525229|-0.621996|0.251141|0.135172|-0.247181|0.986300|-0.224722|-0.911258|0.518512|0.498225|0.266291|-0.316994|-0.979105|-0.932335|-0.253505|0.045463|-0.945070|0.540134|-0.000034|-0.758364|-0.385926|-0.789754|-0.550117|-0.285009|-0.551863|-0.171985|0.616492|0.522005|-0.552958|-0.955610|-0.792481|-0.078187|-0.577606|0.458660|-0.943015|0.175213|0.444960|-0.167737|0.263954|-0.036528|-0.669512|-0.469755|0.646478|-0.648617|-0.402090|-0.607027|0.396846|-0.347160|0.933107|-0.603189|-0.105524|-0.452819|-0.392942|0.344359|0.262172|0.055194|-0.827626|-0.121336|-0.422801|-0.380584|-0.076946|-0.215281|0.541229|0.345447|-0.756621|0.598214|-0.479340|0.688339|-0.569523|0.784614|-0.348188|-0.239035|-0.685141|-0.701710|0.112348|
# 3
-0.308737|-0.490806|0.565610|-0.375631|-0.093995|-0.539914|0.171550|0.513062|0.798282|-0.573200|-0.468545|0.975054|0.322811|0.163107|-0.386353|-0.754372|0.931567|-0.859482|0.581143|-0.839697|0.728931|-0.914314|0.871074|-0.834967|0.886162|-0.486295|-0.072881|-0.798979|-0.225177|-0.960533|0.120672|0.503257|-0.473601|-0.307872|-0.878966|0.454665|0.137224|0.299176|-0.028497|-0.057787|0.729284|0.535984|-0.069038|0.045284|-0.321068|0.518532|0.270904|-0.388385|0.654449|-0.138389|-0.214831|0.423075|-0.036841|-0.352938|0.556280|-0.130741|0.162151|-0.532531|0.050341|0.972761|-0.477632|-0.835868|0.476018|0.082085|-0.149893|0.569025|-0.485214|0.983018|-0.111039|0.506443|-0.200558|-0.364282|0.029904|0.847699|0.681002|0.711344|0.386842|-0.037417|-0.677041|0.019133|0.832878|0.108128|-0.590741|-0.213504|0.730582|0.756003|0.635817|-0.084045|-0.547253|-0.313842|-0.501199|-0.471219|-0.152109|-0.635267|-0.956668|0.518392|0.968377|-0.430476|0.711318|-0.140769|-0.936556|-0.396211|0.812928|0.093348|-0.548513|0.197829|-0.195307|0.816171|-0.850357|0.127652|-0.160443|0.972981|-0.593754|0.244562|-0.286216|0.986276|0.210101|-1.137924|-0.093076|0.871344|0.081452|0.736937|-0.369155|0.931742|-0.839627|-0.325823|0.642354|-0.871249|0.382341|0.302404|-0.000052|0.307145|0.876552|-0.509141|-0.599506|-0.642320|0.917610|0.205187|-0.825452|0.844424|-0.668987|0.009155|0.817405|-0.608787|-0.746283|-0.423118|-0.440413|0.460710|-0.027824|0.466511|0.122858|-0.946372|0.240312|0.998125|1.002366|0.422525|-0.572120|0.610935|0.551276|0.671581|-0.100804|-0.449865|-0.021274|-0.180468|0.058087|0.207380|0.177212|-0.247133|-0.415593|0.260373|-0.279299|-0.141123|-0.639782|-0.585304|0.485863|-0.386065|-0.008422|-0.954549|-0.922247|0.963754|0.508054|0.200612|-0.982618|-0.225886|-0.059609|-0.997247|-0.803361|0.403947|0.613688|0.747914|0.040320|-0.472972|-0.700862|-0.967499|0.346560|0.564737|0.583431|-0.476228|-0.887405|0.996128|0.874835|-0.292617|-0.086627|-0.764947|0.177028|-0.600763|-0.151012|-0.884248|-0.555313|-0.161315|-0.909319|0.956649|-0.872647|-0.905208|-0.269237|0.081668|-0.902455|-0.072599|-0.536138|0.711234|-0.346165|0.607041|-0.761739|-0.025547|0.717846|0.584821|-0.668322|-0.038140|-1.261738|-0.558231|-0.052134|0.989261|0.149152|0.871361|-0.781519|-0.728770|-0.729402|0.067469|-0.403237|-0.284715|0.994210|-0.537704|-0.323477|-0.878437|-0.442911|0.402697|0.203231|-0.879048|-0.669902|0.667093|-0.634132|0.005414|0.186947|-0.373256|0.979867|-0.044416|-0.664504|-0.688456|0.696730|-0.702457|-0.246687|-0.345282|-0.719029|0.902465|-0.473920|-0.500548|-1.259471|-0.203323|0.566920|-0.441419|0.511962|0.561130|0.217109|-0.804842|0.682693|0.577966|0.570942|-0.114076|-0.767400|0.916692|-0.775114|-0.401532|-0.077895|0.737748|0.202598|-0.413459|-0.527382|0.391548|0.213516|-0.678749|0.689091|0.966829|-0.175934|0.970062|0.867196|0.350146|-0.530486|-0.957010|-0.853177|-0.937202|-0.398429|0.658786|0.597564|0.622449|0.361498|0.280257|-0.013949|0.429276|-0.836994|0.433016|0.345968|-0.280801|-0.968516|-0.731927|-0.543053|0.230778|0.170045|-0.070435|-0.374371|-0.616439|-0.090044|-0.685280|-0.650140|0.586288|-0.715218|-0.780315|0.273125|-0.245704|-0.737325|0.419948|-0.208119|-0.135754|0.078734|-0.611706|-0.513305|-0.078583|0.668551|0.687111|-0.649307|0.834732|0.105625|0.696660|-0.170577|0.151610|0.964733|0.005119|-0.614308|0.134778|0.940442|0.011321|0.518338|0.039354|0.324707|0.868728|-0.037667|0.610824|-0.911587|-0.755106|-0.634880|-0.648912|0.655406|0.157801|0.215334|-0.265860|0.544143|0.702029|0.655557|0.212694|0.382488|-0.993750|0.047426|-0.490734|0.702910|0.601357|0.643646|0.667643|-0.387766|-0.953432|-0.197579|-0.447324|0.061901|-0.679241|0.592030|-0.616069|-0.810513|-0.445637|0.994755|-0.722100|-0.210179|-0.640124|-0.371012|-0.538053|0.515726|0.844321|0.179368|0.059869|0.562010|-0.165075|-0.727437|-0.046318|-0.158826|0.319989|0.444755|-0.455916|-0.078654|0.105631|-0.788273|0.533580|0.152199|0.014148|-0.913744|-0.789912|0.334906|0.678286|-0.422395|0.524393|-0.767351|-0.411225|0.757478|0.022470|-0.047323|-0.568719|0.467698|-0.535624|-0.724398|-0.352934|0.524245|0.821952|0.481991|0.796808|-0.242559|-0.676835|0.116797|-0.797804|-0.132751|-0.961857|0.307827|0.067989|0.571723|-0.539974|-0.904589|0.640428|-0.329885|0.428031|0.336264|0.264134|-0.047576|0.568913|0.852909|-0.245282|-0.408616|-0.198440|0.185998|-0.940918|0.265936|0.461600|-0.293852|-0.209819|0.283552|-0.811862|-0.399152|-0.959007|-0.484588|0.703787|-0.756811|0.378553|0.741930|0.551017|-0.542471|0.313653|-0.988957|-0.449346|-0.028368|-0.318842|0.978685|-0.692104|0.945292|-0.068891|0.876810|0.798201|0.685827|-0.531806|-0.400239|-0.141038|-0.475314|0.865697|-0.666575|0.233423|-0.344121|0.616977|0.421562|0.242868|0.657971|0.932865|-0.053345|0.901160|0.311418|-0.311414|0.452177|0.768947|-0.997761|0.463219|-0.680399|-0.026129|-0.855623|-0.701715|0.283206|-0.910331|0.229394|0.158577|0.887870|-0.084779|0.626771|-0.512368|0.787046|-0.845953|-0.646671|-0.879529|0.387470|0.009208|0.737449|-0.190968|-0.747924|0.395419|-0.258103|0.198731|0.296579|-0.946686|0.887317|-0.250266|0.822261|0.889555|-0.788025|-0.858138|-0.136574|-0.643648|-0.559853|-0.854806|-0.553978|0.669542|0.303771|-0.666108|-0.415237|-0.069458|-0.178476|-0.628191|0.084589|0.174853|-0.507720|-0.527941|-0.815940|-0.770272|0.281091|-0.563864|0.625148|-0.977012|0.634867|-0.078273|-0.923698|0.522184|0.670483|0.898563|0.411739|0.882459|-0.959575|-0.724835|-0.761189|-0.519428|-0.579641|-0.315167|-0.849886|0.724130|0.018724|-0.265123|-0.345328|0.840248|0.106685|0.739261|0.015101|0.598965|-0.788680|0.199161|0.828693|0.492411|0.635297|0.453841|0.515398|0.270164|-0.624432|0.591700|-0.207653|-0.953948|0.490263|-0.795914|0.928510|0.530689|-0.520748|-0.832679|-0.988739|-0.100389|-0.147846|-0.838625|-0.376259|0.870878|-0.103748|0.278414|0.711126|-0.997063|0.017675|-0.273773|0.601902|0.228995|0.925388|0.430596|-0.278594|0.560684|-0.115563|-0.763196|-0.169152|0.260005|0.828504|0.623195|0.306057|0.318768|0.827282|0.234567|-0.150544|-0.693467|0.401888|-0.139283|0.206144|-0.745958|0.022093|0.829886|-0.875080|0.918345|0.108299|0.836047|0.921282|-0.874026|-0.437726|0.523184|0.354968|-0.512339|-0.046220|-0.923626|-0.951654|0.838217|-0.686822|-0.120806|0.098222|-0.858318|-0.497611|-0.595721|0.460450|-0.670329|0.638846|-0.690094|-0.363796|0.040734|0.170623|0.842348|0.294776|-0.807284|0.672234|0.419697|-0.888939|-0.219467|0.255743|-0.967658|-0.093493|0.818017|0.555527|-0.738525|-0.694322|-0.490693|-0.662151|-0.645976|-0.652476|-0.348973|0.233218|0.445746|-0.207291|0.735607|0.850025|-0.746841|-0.934723|0.488871|-0.436935|-0.298519|-0.470394|0.733688|-0.456170|0.824382|0.926404|-0.783936|0.244079|-0.962535|-0.003403|-0.500178|-0.930193|0.903104|-0.682161|0.625334|-0.835421|-0.376482|-0.865359|-0.497571|-0.022458|-0.517836|0.153456|-0.789241|0.927910|0.946165|0.946366|0.777935|-0.800676|-0.988357|0.266806|-0.237611|-0.286875|0.796412|-0.503923|0.256954|0.620794|-0.577519|0.473018|-0.135127|-0.540054|-0.530385|0.364695|-0.470247|-0.627281|0.682535|-0.844913|-0.462702|-0.693947|-0.710272|0.039727|0.283594|-0.228108|-0.806818|0.494354|-0.300198|-0.860653|0.440720|-0.522263|-0.661329|0.452363|0.744544|0.101059|-0.834512|0.540956|0.597136|0.422442|0.161750|-0.980383|-0.104539|-0.973377|-0.520437|0.365076|0.391318|0.009317|0.737795|0.073853|0.164404|-0.724907|0.379905|0.454132|0.314820|-0.336500|-0.773976|0.508002|-0.842147|-0.074174|0.647349|0.598573|0.403563|0.986020|0.050936|0.148107|0.087080|0.216424|-0.310937|
# 4
-0.361133|0.850813|-0.296167|0.534327|0.877436|0.183397|-0.100597|0.268754|-0.822977|-0.370355|-0.575680|0.351641|-0.127801|0.675273|-0.185359|-0.793870|-0.619508|0.028124|0.742406|-0.471515|0.989429|0.411671|-0.882804|0.361361|0.368482|0.193374|-0.485232|-0.544439|-0.554077|0.203831|0.123917|0.048665|0.072570|0.801416|-0.411027|-0.067920|0.031264|0.482395|-0.811517|0.218569|-0.876546|-0.456561|-0.467443|0.031883|-0.729367|0.419536|0.272131|-0.348038|-0.574642|-0.005895|0.195826|-0.676187|-0.623433|0.338263|0.755117|0.687681|-0.476727|-0.719266|-0.799390|-0.058565|0.473215|0.340387|0.990100|-0.533269|0.128457|-0.834701|0.475965|-0.788996|-0.925446|0.667059|0.307787|-0.824921|-0.795287|-0.992438|0.206961|-0.529336|0.375244|-0.557003|0.122626|0.821005|0.500494|-0.681548|-0.790539|0.836626|0.699204|1.250096|0.581674|-0.811647|-0.791600|0.782284|0.366923|2.030013|0.114454|0.119887|-0.763459|-0.764497|0.692979|0.696981|-0.221242|0.741850|0.358255|0.948397|0.651803|0.562968|0.955959|0.091283|-0.966368|0.351607|0.596460|0.156258|0.183933|0.056519|0.813989|0.382073|-0.236697|0.148928|0.346651|0.069220|0.319779|0.471443|-0.742897|-0.494909|0.289295|0.379773|0.569454|0.525836|0.637911|0.262433|0.689990|-0.795886|0.010899|-0.418928|-0.792230|-0.209275|-0.855960|-0.891530|-1.158073|-0.822327|0.442435|0.661408|0.365674|-0.367312|-0.282073|-0.732767|-0.985239|0.611071|0.940068|0.366386|-0.914110|0.259846|-0.057473|-0.657007|0.713825|-1.035989|0.672907|0.278867|0.757657|0.409207|-0.458700|-0.019526|0.650681|0.561236|0.561546|0.765832|-0.513358|0.783157|0.874302|-0.448410|0.883259|0.131566|-0.940063|0.267693|0.967067|-0.069076|-0.974168|0.981828|-0.458005|0.965899|0.343240|-0.372115|0.226489|-0.714233|-0.029122|-0.064841|-0.477562|-0.306356|-0.785974|-0.946006|-0.897149|-0.244674|0.234387|0.716172|-0.692475|-0.182735|0.482004|-0.667274|-1.036701|0.356305|0.333253|-0.593889|-0.309316|0.558754|0.623301|-0.342250|-0.702569|0.649132|-0.360422|0.011945|0.615032|0.919340|0.604739|-0.159222|-0.731414|-0.369563|0.775936|-0.213826|0.324081|0.989963|0.061419|0.426932|-0.239627|-0.771191|0.143104|0.052814|0.580060|-0.374892|0.846981|0.657255|1.414972|0.192738|-0.926877|-0.345385|-0.248508|0.686666|0.329847|0.241170|0.335799|0.969426|-1.035093|-0.049169|0.952244|0.932402|0.767188|-0.779170|-0.437161|0.567545|0.007004|1.557150|0.557507|-0.931577|0.313851|-0.697204|-0.650489|-0.621817|0.355611|0.047228|0.628502|0.202592|0.177220|0.063477|-0.604670|0.240586|0.735574|0.146822|-0.072748|0.065421|-0.197520|-0.736949|0.034847|-0.339164|0.213882|-0.012909|-0.783478|-0.024895|0.207921|0.156077|-0.402410|-0.785075|0.042996|-0.869458|-0.189173|-0.643153|-0.566662|-0.331090|-0.186197|0.550356|-0.811125|0.895866|-0.008459|0.021071|-0.040657|0.386871|-0.393319|-0.305083|-0.471270|0.533933|0.760338|-0.078314|0.796984|-0.290699|0.582522|0.010866|0.782276|-0.824240|-0.376454|-0.009803|-0.080475|-0.410609|0.155143|-0.625168|-0.280067|0.488471|-0.268320|0.153271|-0.842619|0.532722|-0.057780|-0.653744|0.441349|0.933762|1.059663|-0.599308|0.320866|-0.179025|0.095609|0.854327|0.852965|-0.144053|-0.223987|0.649948|0.645001|-0.641465|-0.339186|0.433407|-0.465705|-0.322830|-0.576396|0.866132|0.266560|0.628726|-0.755253|0.986493|0.259658|-0.027356|0.139764|0.284486|-0.481873|-0.918015|0.620834|0.959476|-0.984253|0.333185|-0.645071|0.336380|0.652216|0.455776|0.190707|0.574180|-0.688277|0.966720|0.155129|0.970310|-0.674745|0.815943|0.396261|-0.140449|-0.506887|0.819865|-0.269364|0.759673|0.448591|-0.033353|0.746166|-0.434212|0.962509|-0.114069|0.840366|-0.542582|-0.032084|0.461200|-0.625322|-0.016338|-0.205615|-0.222939|-0.679958|-0.553399|-0.767163|0.510748|0.951782|-0.455441|0.477468|0.064004|-0.492587|0.802724|-0.077146|0.903674|-0.382572|0.415968|0.723539|0.326543|0.175641|0.172130|-0.645396|-0.078193|0.737918|-0.706105|0.807738|0.578285|-0.248688|-0.224346|0.039484|0.168206|0.759316|0.833869|0.974731|-0.920642|-0.719530|-0.821897|0.665739|-0.767748|-0.294026|0.067575|0.339163|0.230075|-0.129702|-0.737983|0.133748|0.532573|0.677985|-0.142713|-0.079470|-0.146374|-0.970583|0.275134|0.775433|0.767335|0.569028|0.594586|0.345620|-0.679659|-0.626814|-0.575268|0.488546|-0.881859|-0.781027|0.433813|-0.802501|-0.500557|0.611915|0.787605|-0.268305|-0.665423|-0.144820|-0.929143|0.564652|0.725478|-0.667125|-0.301600|0.258051|-0.989141|0.520502|-0.821420|-0.150522|0.585104|0.453714|-0.360082|0.352440|0.022742|-0.776910|-0.301940|0.343083|-0.418085|0.083164|-0.168370|-0.299944|0.302137|-0.734558|-0.102445|0.801581|0.877358|-0.314840|-0.466725|-0.788065|0.582252|-0.401675|0.776587|0.265818|-0.062992|-0.525013|-0.476132|-0.052133|-0.969325|-0.297551|0.812352|0.615779|-0.843837|-0.547729|-0.031781|0.178905|-0.324640|0.666279|-0.478012|0.257275|-0.250557|0.353618|0.957332|-0.941626|0.619060|-0.145113|0.853161|0.496418|0.540047|-0.613564|0.708353|0.080387|-0.009431|0.484940|-0.653795|0.927577|0.959927|-0.129927|-0.124556|0.990602|0.572522|-0.312204|0.606381|0.728685|0.140067|-0.425400|-0.112291|0.815427|-0.759121|0.429578|0.072702|-0.009678|-0.216804|0.030034|0.041902|-0.597744|0.884921|-0.104937|0.898674|0.424968|0.281500|0.607026|-0.494646|-0.727931|0.091966|-0.148441|-0.800354|0.051893|0.721632|0.075090|0.042495|0.294154|0.762886|-0.351123|0.022839|-0.097047|0.223477|0.930429|-0.281620|0.464356|0.360006|0.791082|-0.545322|-0.856798|-0.178884|0.496580|-0.454542|-0.293963|-0.608356|-0.555869|-0.868995|0.673144|-0.948842|-0.363641|0.945213|0.143124|0.487918|-0.855141|-0.804983|0.209550|0.219949|0.237513|-0.496295|-0.017165|0.886389|0.526543|0.885788|0.109866|0.456972|-0.395832|-0.425778|-0.183021|-0.604749|0.028900|-0.039819|0.216367|-0.474520|0.505639|0.922404|-0.082876|0.949770|-0.946591|-0.409733|-0.999072|-0.310233|-0.464520|0.144052|-0.822315|-0.319661|0.339069|0.387236|0.900288|-0.423418|0.890940|-0.116877|-0.537029|0.417484|-0.231089|0.572837|-0.125544|0.373079|-0.852941|0.691434|0.768330|0.175959|-0.348385|-0.015303|0.701439|-0.842746|-0.092899|-0.381438|-0.892977|-0.039491|0.208830|-0.892049|0.650277|0.744310|0.252003|0.827962|-0.575351|-0.408928|0.215198|-0.675063|0.167654|0.106138|0.208060|0.630625|-0.476378|0.976971|0.203462|0.398078|0.350050|0.350521|0.089512|0.118380|-0.473521|0.741127|-0.896924|-0.772082|0.898381|0.010177|-0.153520|-0.994596|0.970686|-0.944690|-0.886645|0.620963|0.799620|0.365358|0.448925|-0.775731|0.956430|-0.335877|-0.450795|0.124084|0.770262|0.757265|-0.245292|-0.706117|0.734236|0.958170|0.691961|0.084286|0.308691|-0.218527|-0.797334|0.835170|-0.477400|-0.694258|-0.936912|-0.579019|0.315919|-0.090431|-0.573615|0.286606|-0.035121|-0.460259|-0.092431|-0.235501|0.905099|-0.643506|-0.011233|0.861529|0.020618|0.537973|-0.014387|-0.209121|0.295238|0.740321|0.084763|0.029474|0.698491|-0.223276|-0.886240|0.007182|0.558197|-0.683574|-0.157648|-0.919203|-0.377832|-0.094560|-0.498222|0.938087|0.815008|-0.071836|0.224693|-0.220113|0.467905|-0.867738|0.544386|0.373004|-0.511244|-0.466847|0.234533|0.509374|-0.928874|-0.779854|-0.699747|0.366365|0.960467|0.385016|-0.604161|0.658958|-0.838260|-0.490401|-0.333861|0.719936|-0.173975|0.508491|0.800734|0.448194|-0.586069|-0.697488|0.386281|-0.771061|0.230676|-0.389026|0.008827|-0.301420|-0.256764|-0.446787|-0.928416|0.231992|0.086366|0.306117|-0.258634|0.157493|0.526263|0.041619|-0.476143|0.486729|-0.573365|-0.080304|0.145687|-0.411625|0.429295|0.811827|-0.691689|-0.744679|0.320318|-0.890955|
# 5
0.734248|-0.588443|0.089796|0.963188|0.642233|0.700770|-0.027986|-0.659187|-0.576175|0.499675|-0.590183|0.696921|-0.411129|0.730013|-0.565338|0.769259|0.249763|0.469792|-0.708409|-0.302824|0.895050|0.221025|0.883176|-0.509874|-0.358066|0.689020|-0.217695|-0.102745|-0.025953|-0.108650|-0.393468|-0.256414|0.269330|0.664958|-0.276720|-0.054860|0.386676|0.678788|0.286292|0.830061|0.209908|0.698349|0.503695|0.815608|0.433635|0.938668|0.584329|-0.338360|0.387687|0.877636|0.393146|0.283224|0.090275|0.270339|0.747300|0.747897|-0.040403|-0.504055|-0.370536|0.968697|0.405294|0.230234|-0.287717|-0.286491|-0.076481|0.036025|0.670156|-0.687866|0.128509|-0.051880|-1.341031|-0.698140|-0.346696|0.658814|-0.882532|-0.929833|0.602818|0.541775|-0.268193|-0.024796|0.584745|-0.875047|-0.751490|-0.329928|0.418153|0.934930|-0.597719|-0.645349|-0.506650|0.031745|-0.724352|0.956434|-0.734708|0.035631|-0.329767|0.074749|-0.545313|-0.660765|0.500752|0.258555|0.294189|0.642387|0.791674|0.947493|0.301201|0.977238|-0.982340|-0.111282|0.674020|-0.250533|0.865698|0.253817|-0.185272|-0.887568|0.949123|-0.757111|-0.891757|-0.858500|-0.375636|-0.348065|0.357915|0.091581|-0.419971|0.619895|0.983342|0.250262|-0.218771|-0.561971|0.676333|-0.702415|0.990561|-0.116314|0.932637|0.863247|-0.168821|0.241173|0.854233|-0.151161|-0.861980|0.490831|0.607352|0.993813|-0.255353|-1.180865|-0.893754|-0.331464|-0.257561|-0.779980|-0.005294|0.366802|-0.151853|-0.647379|-0.745866|0.746155|0.971780|-0.702144|-0.321562|-0.224811|-0.264115|-0.732066|0.088563|-0.270990|0.151620|0.012746|-0.428602|0.961909|-0.746081|-0.611791|-0.168361|-0.498680|1.692889|-0.727864|-0.622376|-0.376313|-0.097328|-0.516130|0.292223|0.645110|-0.301642|-0.713071|-0.031459|0.546505|-0.360449|0.326426|-0.049656|-0.387933|0.624282|0.422863|0.387255|-0.639832|0.615953|-0.539971|0.086614|0.072673|0.472775|0.802696|0.172363|0.726694|-0.962586|0.887111|-0.889496|0.925261|-0.682944|-0.511872|-0.931132|0.219728|-0.028002|0.844643|-0.135162|0.484865|-0.873227|0.876751|0.216862|-0.232348|0.203177|-0.808457|0.379718|-0.172541|0.844661|-0.233027|0.152411|0.635360|0.227002|-0.725759|-0.096708|-0.300223|0.932253|0.893859|-0.640373|0.978475|0.769825|-0.469084|0.903736|-0.901974|0.025104|-0.547316|0.317754|0.997102|-0.953157|-0.817408|0.667459|-0.578043|-0.953379|-0.115679|0.189609|0.262520|0.075863|-0.568023|-0.910021|-0.079476|0.336301|0.277606|-0.316454|-0.462492|0.551847|0.121266|0.335194|0.484100|0.418484|0.689552|0.462575|0.199454|-0.773472|0.366311|0.297480|0.251632|0.637602|-0.384766|0.248734|-0.887149|-0.202174|-0.083807|-0.890997|-0.151232|0.800514|0.724417|-0.887722|-0.123623|-0.706256|-0.790332|1.148789|0.630044|0.487274|-0.516861|-0.806653|-0.401966|-0.992236|0.456427|-0.476779|-0.305208|0.145979|0.985796|-0.374298|0.372506|0.334937|0.923182|-0.375862|0.171101|-0.461584|0.841577|0.283952|0.336242|-0.210935|0.818760|-0.617768|-0.410421|0.109530|-0.686901|0.457132|0.836920|-0.477233|0.262857|0.466964|-0.989959|0.745996|0.654766|0.049162|0.753760|0.116738|0.572383|0.345575|-0.737283|0.558173|1.033226|0.635224|-0.089715|0.728891|-0.740638|-0.918614|-0.732693|-0.865103|0.365338|0.603549|-0.078701|0.184097|0.796960|0.510878|-0.272727|-0.889941|-0.023166|-0.432233|-0.367174|-0.648126|-0.968843|-0.357133|0.978301|0.691468|0.692029|0.739447|-0.191794|0.264411|-0.080544|0.063004|-0.177410|-0.274835|-0.293853|0.732875|-0.565186|-0.034491|0.814261|-0.278636|0.110825|0.179598|-0.675087|-0.980958|-0.636304|-0.878127|0.529919|0.103444|-0.768068|-0.493247|0.655162|-0.135242|-0.253556|0.710221|0.507625|-0.267869|0.377788|0.199654|-0.528422|-0.839376|-0.535934|0.391034|0.256917|0.286656|-0.883801|0.963064|0.019530|-0.429744|-0.071427|-0.166209|0.268844|-0.973684|-0.986611|0.616533|-0.954643|-0.655047|0.738406|0.575276|0.472532|0.970338|-0.917970|0.123217|-0.164904|-0.171527|-0.190464|-0.657279|0.560604|-0.812676|0.542375|-0.967817|-0.626682|-0.993559|0.423217|0.621472|0.293096|0.539416|0.593300|-0.700745|-0.890328|-0.467726|0.146418|0.401292|-0.451811|0.159807|0.017824|-0.406454|0.536892|-0.243770|-0.831178|0.004947|-0.273433|-0.749148|-0.871836|0.561663|0.079325|-0.062300|0.922666|-0.360071|0.125024|0.475237|-0.322300|0.498342|0.453200|-0.904672|0.128578|-0.253704|0.634744|-0.278122|0.058923|0.744416|0.243751|-0.794660|0.145708|0.791940|0.365147|-0.836468|-0.614514|-0.097960|-0.080238|-0.467617|0.906986|0.660509|-0.194840|-0.964850|0.207992|0.884485|-0.027150|0.112377|-0.475586|-0.902126|-0.440864|0.196526|0.596216|-0.987664|0.291854|-0.275206|-0.241367|-0.073401|0.446672|0.817555|-0.328985|-0.309576|-0.967597|0.792797|-0.517637|0.388043|0.980254|-0.132151|-0.709917|-0.099984|0.422157|-0.802931|-0.453655|-0.772684|-0.767781|0.754338|-0.888199|0.205069|-0.133286|-0.363785|0.302943|0.425851|0.832741|-0.100840|0.438187|0.120128|0.623954|-0.803181|-0.948806|0.070626|-0.985625|-0.277791|0.761050|-0.962730|-0.461069|-0.756587|0.425313|-0.480815|0.111262|0.715396|0.419202|-0.466581|0.912465|0.965547|-0.239264|-0.855316|0.719885|-0.127463|0.345380|-0.413401|0.508752|-0.347304|-0.987550|0.341493|0.551855|0.450637|-0.533912|0.175809|0.647456|-0.482718|-0.753565|0.661831|0.239490|-0.992515|0.699101|0.778421|-0.749101|0.124414|-0.702393|0.362161|-0.160190|0.716808|0.895580|-0.247726|0.682355|-0.343684|-0.103042|0.402240|0.528853|-0.753289|0.988839|0.037605|-0.100594|-0.998711|-0.620903|-0.548738|0.451926|-0.154815|0.627071|0.099382|0.362467|0.873506|-0.238788|-0.398042|0.880992|-0.539687|-0.619621|-0.868109|0.584727|-0.322014|0.494052|-0.575464|-0.605206|0.389632|0.176811|-0.922850|-0.954052|-0.926231|0.479390|0.574801|-0.679520|0.468229|-0.387595|0.219886|0.469518|-0.008497|0.671148|-0.078556|0.836688|0.298219|-0.979174|0.199155|0.171725|-0.217962|0.801113|0.052717|0.242351|-0.818508|0.184607|-0.172923|-0.140522|-0.321341|0.251614|0.254272|-0.931709|-0.571576|0.331421|-0.885761|-0.497807|-0.189189|0.689040|-0.177327|-0.720960|-0.698554|-0.957441|0.748558|0.292948|0.713707|-0.329998|0.129636|0.011925|-0.309172|-0.671209|-0.816350|0.472865|-0.870096|0.236367|-0.284784|-0.688604|-0.579026|0.542293|0.170874|0.099634|-0.206093|-0.574855|0.167925|0.222331|0.756567|0.282164|0.724524|-0.432622|-0.028796|-0.452803|-0.153582|0.272650|-0.410244|-0.405024|-0.434401|-0.696538|0.264978|0.695235|0.315388|0.955806|-0.975974|0.499038|0.428671|-0.846069|-0.264595|-0.856113|-0.534673|0.156379|0.686180|0.636200|-0.743987|-0.519913|-0.938654|0.423938|0.702419|0.817913|-0.293898|0.426943|-0.614710|0.677306|0.974140|0.231708|-0.050043|-0.436104|0.826684|0.515555|-0.132642|0.091662|0.210790|-0.817254|0.047468|0.234816|0.681784|-0.523861|0.388747|-0.582811|-0.379973|0.854074|0.573568|-0.693793|0.490274|0.829581|-0.213706|0.551620|0.253519|-0.511287|0.369532|0.959621|0.915656|0.754823|0.636928|0.889796|-0.013469|-0.413116|-0.546308|-0.186784|-0.897560|0.321051|0.904878|0.313230|0.503797|-0.047654|-0.451954|0.185581|0.428486|0.936793|0.602770|-0.951488|0.790866|0.176338|-0.645281|0.281140|0.005920|0.141014|-0.167240|-0.740561|0.629727|-0.797708|-0.780940|0.545383|0.957115|0.855988|0.435179|-0.056353|-0.557128|0.888872|0.756862|-0.454688|0.209922|0.661740|0.858541|-0.286281|-0.385914|-0.593413|0.899300|-0.957428|-0.656620|0.502070|-0.908916|-0.865754|-0.321592|-0.554196|0.415387|0.684328|0.586818|-0.751853|0.943767|0.216545|-0.549561|-0.837173|-0.238072|-0.592446|-0.981185|-0.802893|0.351201|-0.538313|-0.914021|0.108063|0.006999|0.295901|
# 6
-0.134459|-0.990380|0.383889|0.272128|0.908920|0.426461|0.615508|0.410990|0.532381|0.736658|-0.902765|0.962408|0.164700|0.769866|0.575093|0.411932|0.744150|-0.237947|0.875858|0.897586|0.514809|-0.724775|0.917778|0.716685|0.622481|-0.639178|0.811726|-0.269456|0.406599|0.107627|0.510289|-0.766638|0.120302|-0.121735|0.499427|0.026168|-0.680939|0.120997|-0.557120|0.837821|-0.122885|-0.473444|0.795326|-0.964108|-0.694754|0.353676|0.477209|-0.982226|-0.891527|0.312906|0.898094|0.628790|0.584186|0.797229|0.362860|0.214466|-0.832871|0.193616|0.937211|0.525872|-0.713869|0.437558|0.759234|0.435232|-0.645512|0.377570|-0.564185|-0.367508|-0.608374|-0.144363|-0.282036|0.256473|0.389342|-0.747672|0.292365|0.689624|0.570794|-0.212836|0.707399|0.702561|-0.939208|0.605493|0.339673|0.638636|0.403066|0.027012|-0.154696|0.560772|0.862198|-0.217485|0.463086|-0.730017|-0.760205|-0.154121|0.558793|-0.128534|-0.889398|0.984421|0.444359|-0.367111|-0.152792|0.635095|0.657516|-0.763450|0.887423|0.081893|0.926174|0.481511|0.786706|0.633573|0.184033|0.841157|0.420228|-0.476255|0.893998|-0.345466|0.226279|-0.573962|-0.797441|0.167418|0.107612|0.334114|0.262730|0.327686|-0.864917|-0.178477|0.849650|-0.754315|0.031845|0.043913|-0.257991|0.653152|-0.323082|-0.204171|0.889702|-0.433570|0.732866|0.815876|-0.949915|0.326674|0.458662|0.232013|0.167831|-0.318378|0.755759|-0.352376|0.330300|-0.018014|-0.027279|0.532859|-0.914565|-0.919667|-0.077286|0.460306|0.419825|-0.042854|-0.830313|0.277573|0.202831|-0.024369|-0.676051|0.945187|-0.371217|0.000494|-0.560355|-0.650791|0.566924|0.979613|-0.665640|0.828338|0.275715|0.991140|-0.153121|-0.525883|-0.527678|-0.397362|0.121741|0.802622|0.584675|-0.905538|0.360548|0.670109|-0.825205|-0.842455|0.033200|0.582814|0.114690|0.388083|-0.139613|-0.682478|-0.607638|0.181873|-0.737639|-0.207624|-0.817634|0.300058|0.782715|0.749290|-0.310548|0.645221|0.364156|0.987906|0.429029|-0.788965|-0.624326|0.901351|-0.186328|0.581280|0.703973|-0.337130|0.684323|0.039454|-0.931544|0.853021|0.196998|0.086730|0.435836|-0.688311|-0.725308|-0.703777|-0.378018|-0.576851|0.478095|-0.108428|0.442435|0.660462|0.593579|-0.458478|0.590403|-0.724802|-0.811086|-0.207824|-0.736896|0.615772|-0.015057|-0.274873|0.517123|0.798615|-0.523895|0.221096|-0.803038|0.987117|-0.731335|-0.734582|0.840139|0.457548|0.352149|0.141638|0.769237|0.626841|0.572197|-0.601553|-0.945226|0.054654|0.290019|0.624614|-0.220600|-0.116402|0.837308|-0.879495|0.158796|-0.975949|-0.105587|0.421901|0.639823|0.879356|-1.159077|0.156945|0.677970|-0.544080|-0.621959|0.874932|-0.351800|-0.331884|-0.859650|-0.716824|-0.904972|0.492499|0.559150|0.865375|0.115666|0.131346|-0.736178|0.184465|-0.818362|0.439788|-0.519748|-0.107609|-0.562561|-0.742516|0.012897|0.596236|-0.658389|0.907310|-0.005318|0.981433|0.786665|0.165165|0.138379|0.448756|0.621085|0.516419|0.339568|-0.935878|-1.133472|0.479918|-0.761332|-0.748852|0.019963|0.906447|-0.883477|-0.908243|0.037793|-0.619655|0.276222|0.226188|0.934186|0.756474|-0.888177|-0.628374|-0.942347|0.124719|0.968795|-0.633419|0.032029|-0.014002|-0.602922|-0.181306|-0.848837|0.535456|-0.710622|0.772247|0.051876|0.622898|0.836369|0.206886|0.102816|-0.816334|0.458033|-0.924766|-0.893007|0.574556|-0.517294|0.127906|0.954901|0.445450|-0.652663|0.889087|0.199687|-0.540841|-0.739287|0.273722|0.572288|-0.771425|0.689366|-0.384092|0.214572|-0.885561|0.434602|0.365735|0.621901|0.735523|0.137983|-0.326224|0.340830|-0.025649|0.880662|-0.556354|0.159045|0.338695|-0.481121|0.248130|-0.086749|-0.314130|-0.615706|-0.131848|-0.870917|-0.276627|-0.242760|0.328771|0.203946|0.017953|-0.397508|-0.233589|0.246527|-0.708142|0.382318|-0.538900|-0.621697|-0.183080|0.826835|-0.986899|-0.465148|-0.035182|-0.326020|0.875682|0.965269|-0.445358|-0.680673|0.094707|0.893337|-0.161793|-0.654683|-0.193412|0.524077|-0.278647|0.674741|0.653160|0.444725|-0.568020|-0.018069|-0.372742|0.449933|0.584423|0.391374|-0.303539|0.876281|-0.224013|0.150487|-0.745416|0.576015|-0.015604|-0.745213|-0.872241|0.949213|-0.071233|-0.996559|0.888382|0.483408|-0.677232|-0.014431|0.376745|0.160975|0.330885|-0.816667|-0.314948|-0.947762|0.867335|-0.661788|0.496963|-0.699362|0.315985|-0.875779|0.739988|-0.095434|0.517889|-0.563551|-0.219153|-0.706124|0.594009|0.035431|0.886783|-0.421595|0.290218|-0.985458|-0.472382|-0.781016|-0.982017|-0.584000|0.702393|-0.688286|0.401569|0.054844|0.501726|-0.267545|0.262471|-0.813222|-0.215307|0.120545|-0.475010|-0.718344|0.410600|0.845133|-0.594123|0.150588|-0.250301|0.923766|0.587036|0.530546|-0.782358|0.181046|-0.434023|-0.895575|0.763789|0.866540|-0.881032|-0.712931|-0.924821|-0.863050|-0.296931|0.777572|-0.522299|-0.895362|-0.143291|0.979427|-0.162907|-0.880819|-0.833795|0.621786|0.239726|-0.308805|0.903442|-0.349674|-0.463671|-0.690681|0.800914|0.289427|-0.766914|0.387950|-0.183427|-0.549272|-0.431004|0.382550|-0.444846|-0.671554|0.238745|-0.325879|-0.384486|0.313924|-0.188929|0.318583|0.091495|0.288773|0.423222|0.948205|0.268200|-0.739685|-0.932615|0.434405|0.884005|0.307111|-0.874399|0.785543|0.957437|-0.338071|-0.905138|0.758351|0.947957|-0.672052|0.146301|-0.235470|-0.221324|0.715297|-0.852920|0.333829|-0.956258|0.385825|-0.992050|-0.340743|-0.300251|-0.180978|0.977840|0.791245|-0.892206|0.401062|0.739450|0.375994|0.661377|0.806835|-0.189601|0.543478|0.113946|-0.064000|0.329020|0.071384|0.597929|0.423882|-0.170265|0.545886|0.751830|0.976036|-0.689584|-0.469494|0.691332|-0.542504|0.864335|0.735075|0.843322|0.872286|-0.605669|-0.456929|-0.308693|-0.627828|-0.665684|-0.200899|0.773234|-0.926235|-0.824905|0.434611|0.880600|-0.014505|-0.021912|-0.005453|0.921494|-0.692891|-0.934070|0.519424|0.730991|-0.104335|0.065309|0.482821|-0.128299|0.375725|-0.986673|-0.436967|0.833222|0.877663|-0.701893|0.676544|0.749948|-0.307561|-0.780385|-0.558745|0.064610|-0.446070|0.240357|-0.162156|-0.372305|0.415452|-0.727545|-0.491704|-0.599053|0.250543|0.502842|-0.677558|0.557652|0.568772|0.841865|0.288643|-0.535563|-0.092826|-0.228535|0.336138|-0.717100|-0.215208|0.899171|-0.883878|-0.337545|-0.802722|0.792665|-0.587597|-0.110284|-0.987720|-0.146342|0.954327|-0.433790|-0.905985|-0.207829|0.193906|0.509468|0.064625|0.702201|0.910415|-0.684831|0.205044|-0.767144|0.872821|-0.226184|-0.925279|0.161464|0.238254|-0.018104|0.932928|-0.425608|0.264796|-0.282280|-0.526438|0.380917|0.380175|-0.329160|0.173583|0.792578|0.560556|0.185863|-0.353764|0.514883|0.752073|-0.259749|-0.692947|-0.054021|-0.750281|0.371679|-0.351819|-0.839867|0.686848|0.853224|-0.607010|0.559668|-0.372960|-0.532289|-0.278868|0.865294|0.449607|-0.345940|-0.560315|-0.285598|0.371780|-0.086752|-0.904680|-0.248045|0.584087|0.268902|-0.455467|0.144644|-0.545235|0.190769|-0.340474|-0.793162|0.931020|-0.033420|0.152818|-0.819261|-0.661741|0.800998|-0.659128|-0.974894|0.654222|-0.266139|0.584774|-0.718737|0.201572|-0.694094|-0.853443|-0.348821|-0.040034|-0.413758|0.365581|-0.668253|0.499490|0.460901|0.083702|0.083577|-0.270197|0.628235|-0.771779|0.184568|-0.180996|-0.112253|0.391407|-0.249976|0.854327|-0.455776|-0.069238|-0.807414|-0.654777|0.271634|-0.782308|0.999445|-0.994504|0.802467|-0.719292|0.207068|-0.891627|-0.572736|0.858247|0.068339|0.013506|0.223828|0.400086|-0.487004|-0.315271|-0.516211|0.596573|0.414532|-0.887976|0.824793|-0.400899|-0.068972|-0.287460|0.990507|0.681051|-0.433133|-0.465268|-0.388186|-0.240547|-0.120045|0.883448|-0.022855|-0.120600|0.888944|-0.220388|0.160107|0.096012|-0.112015|
# 7
-0.045741|0.956325|-0.399122|-0.821913|0.356411|0.113873|-0.137184|0.840200|-0.311516|-0.718498|0.948218|-0.451599|-0.134497|-0.112028|0.255495|-0.128469|-0.417403|0.816477|0.401870|0.156822|-0.416658|-0.718839|0.059576|0.561121|0.161042|-0.051492|-0.669142|-0.678851|-0.963125|0.218843|0.909125|-0.001221|0.155142|-0.499736|0.186337|-0.468421|0.635880|-0.960319|-0.630808|-0.665892|-0.683364|-0.675998|-0.124871|0.193477|0.218866|-0.876981|-0.940683|0.771555|0.931383|0.462120|-0.052329|-0.485787|0.743762|-0.992765|-0.943271|-0.073639|-0.044280|-0.612842|0.225953|0.000263|0.607588|0.134473|0.999042|-0.242375|0.641290|0.137509|0.292989|0.267142|0.227249|0.694269|0.602837|0.532617|-0.991043|-0.530185|-0.273906|0.216209|-0.412987|-0.207669|-0.012236|-0.482067|-0.746571|0.935434|0.023417|0.992409|0.957537|0.299974|-0.102788|-0.101587|0.487180|-0.876835|1.024382|0.255208|0.257083|0.897719|0.855761|-0.065557|0.073626|0.168937|-0.834361|-0.655375|-0.146107|0.769510|0.942913|-0.137151|-0.760675|-0.451662|-0.920942|-0.174124|0.334452|0.066822|0.345765|0.583099|-0.058998|-0.632774|0.575773|-0.064528|0.447372|-0.701518|0.843339|-0.006525|-0.404115|0.882819|0.989267|0.853523|0.639734|0.845028|-0.244803|-0.286640|0.089350|-0.076316|0.002575|0.867858|-0.312736|-0.123603|-0.269293|-0.067480|0.439998|-0.190234|0.762189|-0.293215|0.880188|0.102205|-0.710116|-0.238760|0.469431|0.865391|0.823770|-0.080886|-0.661890|0.667109|0.831907|-0.066005|0.484499|0.934844|-0.208804|0.048858|0.666202|0.542551|0.762218|-0.319833|-0.534358|-0.234856|-0.451975|0.159430|0.589199|0.285252|-0.908051|-0.038468|-0.911502|0.634748|1.060043|0.994300|-0.047450|0.958200|-0.156071|-0.578020|0.823591|-0.332300|0.338783|-0.838299|-0.632893|0.170690|0.095696|0.743933|-0.019837|0.883214|-0.207209|-0.448095|0.425765|-0.444992|0.409849|0.892001|0.319801|0.886258|0.051430|-0.065709|0.176794|0.143380|0.869538|0.253487|-0.006276|0.538849|0.218573|0.946274|0.238855|-0.937498|-0.631746|0.324570|-0.269799|0.894707|0.475637|0.065010|-0.122273|-0.421962|-0.191057|0.869591|-0.538748|0.601733|-0.472344|0.887017|-0.848180|0.603949|0.779018|0.476543|0.820084|-0.169552|-0.614457|-0.082864|1.244614|-0.743925|-0.831422|-0.031051|0.794924|0.389196|-0.086174|0.291973|0.451698|0.282080|-0.635321|-0.818100|-0.010882|-0.905045|0.233883|0.866845|-0.327007|-0.944148|0.736435|0.398050|0.657586|-0.735908|0.021262|0.814328|-0.863786|-0.208839|0.290870|0.508126|0.708500|0.676413|-0.200736|0.604555|0.932488|-0.030113|-0.427893|0.727412|-0.640917|0.485933|0.270839|0.810781|-0.231986|0.631999|0.992681|0.757131|0.475329|0.242118|0.623976|-0.600054|0.291084|0.360411|0.534191|-0.046971|0.761122|-0.444547|-0.232643|0.754483|0.355732|-1.079768|0.636610|-0.013540|0.734640|-0.686193|-0.408985|0.667129|0.405761|0.163122|0.392923|0.764844|-0.350944|-0.586074|0.575626|0.400682|-0.954075|0.568307|0.174201|0.772878|0.046861|-0.201824|-0.942200|-0.896660|-0.868899|0.707015|0.056369|0.783090|-0.737532|0.823726|0.537573|0.608051|0.881953|0.174184|-0.395340|0.616593|0.609846|0.195675|0.285126|0.046834|-0.641203|-0.321738|-0.219337|0.007853|0.092188|-0.643711|-0.573761|0.138113|0.924595|0.599123|-0.089009|-0.267507|-0.602700|0.083815|-0.164167|-0.444113|-0.203996|0.892203|-0.627862|0.053299|0.715928|0.875965|-0.328501|0.597881|0.050734|0.276158|0.214474|-0.339208|-0.534910|-0.501805|0.676610|-0.169369|0.176457|-0.530332|0.838484|-0.731355|-0.186438|-0.710114|0.406758|-0.261843|0.862529|-0.682251|0.470650|-0.740171|0.411825|-0.693517|-0.184284|-0.807605|-0.801314|0.154693|0.241029|0.914614|0.031244|0.917192|0.512495|-0.918022|0.157249|-0.273031|-0.257231|0.665184|0.225164|-0.580621|-0.504186|-0.598379|-0.123348|-0.665702|-0.329733|0.679877|-0.402295|-0.922976|-0.571629|-0.539766|-0.619322|0.899021|-0.279937|0.802526|-0.794496|0.535779|0.988732|-0.595810|-0.309528|0.234425|-0.681196|0.721716|0.151617|0.831298|0.803694|-0.655032|-0.441733|-0.453537|-0.994405|0.783431|-0.034157|-0.494034|-0.826263|0.842495|-0.141122|-0.144681|0.532709|0.437969|-0.067656|0.961080|0.898203|0.327117|0.860101|-0.381734|0.123454|-0.934395|-0.845954|0.112186|-0.530205|-0.155482|-0.653389|-0.203436|-0.433766|0.498228|-0.361187|-0.634276|0.843196|0.178164|-0.083609|0.853347|-0.038405|0.882233|-0.640687|0.146647|0.724728|0.199578|-0.998034|0.257437|-0.362453|-0.065690|0.218517|-0.464250|-0.738573|0.078618|0.151543|0.384881|0.150903|0.308062|-0.502934|0.614017|-0.847420|-0.156322|-0.597385|-0.281186|-0.658094|0.022512|0.088742|-0.814898|-0.799325|-0.994868|-0.961550|0.162270|0.887366|-0.602237|-0.691083|0.612094|0.597341|-0.690742|-0.136454|-0.765113|0.245194|-0.911952|-0.229363|0.506621|0.166666|0.924654|-0.108499|-0.689111|0.232716|0.388568|0.924906|0.385296|-0.767755|-0.672479|-0.895890|-0.425849|0.350033|0.192852|-0.240746|0.550708|0.199258|-0.202297|-0.287022|0.085350|0.195466|0.021896|-0.302556|-0.207193|0.332779|0.566975|0.027694|-0.422027|0.655023|0.798332|-0.915406|-0.178312|0.722985|-0.023905|0.132577|-0.044299|-0.635337|0.057483|-0.659003|-0.414710|0.385004|-0.554893|0.171059|-0.264964|0.637959|0.930313|-0.714255|-0.164057|-0.271984|-0.001277|0.921293|0.923483|-0.979381|-0.381264|-0.283710|0.353398|-0.814289|0.743984|0.931371|0.840734|0.542316|-0.984035|-0.337578|0.265301|-0.007940|0.794999|-0.778998|0.356723|-0.147518|-0.438001|0.953631|-0.762515|0.007106|0.124690|-0.027478|-0.354935|0.055003|0.258267|0.481008|0.783020|-0.743010|0.402301|0.706502|-0.722392|-0.978963|-0.577208|0.631007|-0.793252|-0.833224|0.562378|-0.952518|0.709091|0.578343|-0.290096|-0.025608|-0.429596|-0.495097|0.195395|0.927127|0.357385|0.757394|0.880757|0.594870|-0.235500|0.005448|-0.432608|0.409565|-0.939549|0.825659|-0.109427|0.843471|-0.917351|-0.707126|0.549973|-0.639743|-0.686088|0.972765|0.991264|-0.479340|-0.860459|0.553642|-0.431858|0.848632|0.131985|0.278046|-0.176975|0.702389|0.782949|-0.981581|0.629515|0.140334|0.775813|0.510273|-0.264795|-0.459687|-0.484280|0.302597|0.949879|-0.423828|0.128256|-0.159548|-0.580358|0.210905|0.133327|0.969616|0.571162|0.447238|0.942381|0.562426|0.967898|-0.918078|0.116067|-0.463960|0.930554|-0.751948|0.814086|-0.246421|0.950441|0.597035|-0.228002|0.579956|-0.262630|-0.452189|0.090228|0.472574|0.088125|0.605949|-0.224829|0.038004|-0.817880|0.903427|0.878456|-0.398237|0.114332|0.011782|-0.428621|-0.314506|-0.540979|-0.486241|-0.752080|-0.573081|-0.404319|0.363987|-0.037041|-0.473765|0.612039|-0.222955|0.279814|0.562480|-0.625920|-0.948188|0.142436|0.111449|-0.400377|-0.767336|-0.415976|0.687748|0.838613|0.359195|-0.274249|-0.979267|0.262622|-0.395793|-0.377504|-0.623046|0.615989|0.193875|0.062449|-0.924990|0.707634|0.310368|-0.498071|-0.696685|-0.325645|0.464887|-0.170450|-0.713606|-0.758068|-0.890636|0.848874|-0.383988|-0.838825|-0.008690|0.727461|-0.239202|0.223974|-0.688515|-0.551454|0.062587|0.670680|0.174297|0.083321|-0.066698|0.778504|0.705817|0.310257|0.394493|-0.100308|-0.627295|0.469503|-0.392674|0.683073|0.971432|-0.089359|-0.642572|0.436320|0.740191|-0.356178|0.678252|0.849554|-0.507304|-0.705736|-0.989270|0.484006|-0.978275|-0.228472|-0.292020|-0.666790|0.220073|0.770567|-0.996111|-0.605630|-0.146113|-0.062809|-0.827126|-0.440296|-0.752552|0.567367|0.459396|-0.379847|0.036871|-0.933278|-0.696774|0.008303|-0.022638|-0.339346|-0.555377|-0.282447|0.304476|-0.877126|-0.432893|0.797172|-0.582862|-0.422163|0.281178|-0.561137|0.349365|0.989157|-0.227927|-0.430562|0.759724|-0.224038|-0.036192|-0.386389|
# 8
0.136682|0.173315|0.960602|-0.295950|-0.367289|-0.419245|0.740920|-0.300567|-0.092736|-0.261688|0.712148|0.542699|0.185046|-0.626469|-0.159409|0.307513|-0.032513|-0.366449|0.732965|0.573061|0.919466|-0.813464|-0.115223|0.910412|-0.055206|0.458095|0.676343|0.720756|-0.540724|-0.710046|0.430823|0.558585|0.490140|0.379721|-0.735771|-0.904020|0.979766|-0.996445|-0.204657|-0.138215|-0.243351|-0.527792|-0.609682|0.946624|-0.128252|0.254493|0.278018|0.828012|0.899277|-0.002797|0.367304|0.762319|0.169924|-0.744039|0.743357|-0.949397|0.712652|0.433827|0.835474|-0.864042|0.710273|0.269384|0.694544|0.186076|-0.311755|0.599563|0.299892|-0.360839|0.976125|-0.959391|0.304290|-0.286488|-0.463476|0.902291|-0.339863|0.403080|0.110024|0.933887|0.231092|0.054562|-0.086438|-0.401604|-0.118700|-0.909393|-0.123087|-0.380116|-0.794675|-0.431588|-0.985972|-0.959201|-0.005249|1.161362|0.311521|-0.601086|-0.073067|1.079695|-0.643908|-0.804164|-0.138191|-0.625493|-0.739848|-0.888352|-0.537163|-0.203324|-0.986061|0.683553|-0.800243|0.169224|0.613956|0.430849|-0.781544|-0.465361|-0.981449|0.105086|-0.307590|-0.107178|0.729743|0.496413|0.452012|0.376121|-0.128629|-0.763861|0.528110|-0.818446|-0.444704|-0.544957|-0.886961|-0.088612|-0.465354|-0.231129|0.228214|-0.088969|-0.093750|-0.824300|0.707707|-0.105542|0.542339|0.907464|-0.931918|0.562984|0.343330|-0.712532|-0.902377|0.572338|0.392554|-0.277130|-0.748843|0.125468|0.553442|0.703169|-0.103602|-0.575187|0.797093|-1.101882|-0.424124|-0.585153|-0.120449|-0.238002|0.326235|0.530429|0.544660|-0.444269|-0.558540|-0.588613|-0.186997|-1.208107|0.305845|-0.237970|-0.943370|0.771974|-1.136323|0.482183|0.656995|-0.577363|-0.237501|0.049550|0.145507|0.013656|-0.828152|-0.301051|-0.275763|0.068246|0.123761|-0.423624|0.509910|0.730127|-0.008777|-0.610019|-0.507875|-0.682542|0.982459|-0.977007|-0.128092|-0.655806|-0.565620|0.558228|-0.607958|0.740226|-0.556652|-0.450009|0.109753|-0.228045|0.944933|-0.233252|0.009716|-0.292568|0.816298|-0.661797|0.721088|1.228209|0.035096|-0.562088|0.056391|-0.837191|0.014288|-0.450855|0.892936|-0.994489|-0.078550|-0.614939|-0.665703|-0.154911|-0.591945|0.194877|0.052132|-0.157565|-0.120212|0.661737|0.001674|0.326730|-0.780568|0.691242|-0.901315|-0.843338|-0.540838|0.293277|-0.135906|-0.724540|0.681805|-0.414819|-0.736395|-0.327576|0.031686|0.319997|-0.164767|-0.962618|0.869142|-0.006168|-0.957108|-0.209408|0.113231|-0.634138|0.591213|0.492991|0.560739|0.001618|-0.769328|-0.559473|-0.555110|-0.053618|0.767257|-0.343382|-0.361204|0.865942|-0.186720|0.097957|0.175239|0.677374|0.373417|-0.207404|-0.737445|0.637022|0.536081|0.283353|-0.042981|-0.699746|0.335241|-0.173839|0.028423|0.365923|0.930734|-0.858346|0.731784|0.231529|0.662940|0.579663|-0.985319|-0.973339|0.733050|-0.763747|-0.026957|0.500308|0.116189|0.611839|0.345185|0.929469|-0.290204|-0.474531|0.606842|-0.955275|0.318066|0.869398|0.720235|-0.216914|0.320199|-0.322745|0.277065|-0.521924|0.553993|-0.888237|0.843999|0.120170|-0.746582|0.575783|-0.648302|0.921516|-0.131694|-0.633621|0.943019|-0.398643|0.020318|-0.083938|-0.897436|1.252979|-0.472100|0.467914|0.871608|0.237696|0.993383|0.478451|0.320336|0.311449|0.347848|0.041145|-0.905465|-0.497106|0.718400|0.177875|-0.019029|0.221816|0.321169|-0.175030|-0.778962|0.543055|-0.599247|-0.300261|0.459413|0.269060|0.060063|0.402432|0.870416|0.886013|-0.687491|0.972081|0.828152|-0.153606|0.439994|0.698789|-0.915909|0.433378|0.178211|0.407849|-0.255173|-0.473941|-0.553855|-0.160638|0.028954|-0.835455|-0.976276|-0.990076|0.386361|0.306874|-0.165106|0.728346|-0.122713|0.235648|-0.577970|-0.690658|-0.495293|0.482093|0.743935|-0.624876|0.368106|-0.969732|-0.652796|0.196258|-0.123338|0.787199|-0.103981|-0.039248|0.220576|-0.931515|-0.634247|0.965403|-0.399711|-0.188102|-0.179841|0.629243|-0.023558|-0.198390|0.639167|-0.637197|-0.871125|-0.525938|-0.908850|-0.021196|0.709709|-0.486820|0.288147|-0.785583|0.995273|-0.000079|-0.410460|0.363379|0.042964|-0.063256|-0.440363|0.906851|-0.239883|0.455656|-0.154352|0.944519|0.529886|0.233356|0.909922|-0.869825|-0.954747|-0.285314|0.759418|0.021696|0.536687|0.398585|0.384499|0.665562|0.872646|0.475648|-0.355634|0.599804|0.988828|0.932513|0.798667|0.997690|-0.067566|-0.613688|0.347479|0.962622|0.323056|0.907116|0.869473|-0.953001|0.362772|-0.262924|0.991518|-0.107342|0.970432|0.901440|0.022833|-0.984315|-0.383874|-0.217750|-0.002845|-0.847186|-0.842497|-0.578120|0.818375|-0.946519|0.897528|-0.537258|0.635837|0.886356|-0.604746|0.432609|0.870457|0.327688|0.818921|0.217936|0.290310|0.141977|0.125053|0.159783|0.188976|-0.512175|0.896860|0.193768|0.389179|0.867292|0.081934|-0.596684|0.882977|0.698061|0.185566|-0.079642|0.850874|0.366401|0.342238|0.669250|0.419882|0.239766|-0.868009|0.055719|0.126123|-0.472754|-0.511673|-0.003420|0.854934|-0.692752|-0.785620|0.145244|0.449225|0.339569|-0.694973|-0.361799|0.827394|-0.798113|0.818696|0.207877|-0.930821|-0.099370|0.611192|0.952156|-0.401310|-0.203242|-0.127486|-0.550436|-0.836841|-0.785248|-0.881186|0.583041|0.454519|-0.741084|-0.361240|-0.419359|-0.221949|0.127087|0.577221|-0.367016|0.434335|0.791737|0.778228|-0.116439|0.131306|-0.916744|0.521762|-0.041300|-0.714857|0.340458|-0.833423|-0.645678|-0.758913|0.777769|-0.693522|-0.160222|-0.425473|0.178992|0.289342|-0.262314|0.393744|0.408156|-0.679273|-0.151737|0.658962|-0.040513|0.428904|-0.562988|-0.913426|0.006126|0.069997|0.520909|-0.202137|-0.151775|-0.595530|0.929170|-0.068519|0.926232|-0.112130|0.216623|0.266689|0.054447|0.570945|0.507777|-0.167784|0.877423|-0.652446|0.406743|0.056415|0.636896|-0.855571|-0.549841|0.045052|-0.534843|0.298422|-0.295986|0.424643|-0.272673|0.141026|0.511217|0.733452|-0.788977|0.032126|-0.468684|0.059248|0.436595|-0.539515|0.990729|0.362827|0.348355|0.207352|-0.370484|-0.597198|-0.221703|-0.862707|0.235018|-0.344280|-0.515153|-0.358239|0.712135|-0.878257|-0.213809|-0.837706|0.166795|0.251347|0.460717|0.870809|-0.324010|-0.811957|0.011836|-0.812793|0.921496|0.222859|0.219333|-0.547189|-0.717893|-0.344072|-0.086703|-0.727164|-0.981245|-0.738348|0.480188|-0.351729|-0.335546|-0.741514|-0.214437|0.899472|-0.085794|0.270410|-0.458767|-0.373659|0.392153|0.327424|-0.211364|-0.441051|-0.421229|-0.750648|-0.570242|0.254762|-0.562604|0.441594|0.441969|-0.641109|-0.335547|-0.338698|-0.188298|-0.053440|0.317230|0.724999|0.219396|0.335984|0.986651|-0.300416|0.984255|-0.348896|-0.041930|-0.230182|-0.449424|0.872276|-0.959772|0.091809|-0.501383|0.432381|-0.580767|0.287253|0.991330|-0.001995|0.536605|-0.578912|-0.747233|0.974001|0.862681|0.694736|-0.667108|-0.472866|-0.643963|0.144594|0.473694|0.673267|-0.130407|-0.306911|0.009252|-0.143757|0.392673|-0.006493|0.507348|-0.649258|0.763325|-0.942076|-0.776982|0.803553|0.149734|-0.278365|0.235934|0.568967|-0.991112|0.227264|-0.433028|0.545493|0.648352|-0.180262|0.519493|0.511033|-0.485526|0.852385|-0.961833|-0.129489|-0.003021|0.511861|-0.456221|0.866572|-0.795050|0.553030|-0.277185|0.597623|-0.453463|-0.769837|0.948365|-0.690138|-0.711913|-0.828617|-0.886586|0.437821|-0.106982|0.349349|0.006788|-0.098094|-0.423387|0.573760|-0.552601|-0.775035|-0.606502|0.966892|0.735998|-0.092028|0.819277|0.774165|0.778484|-0.183744|0.286026|-0.677738|-0.317172|0.490976|0.875292|0.405643|0.088599|-0.578171|0.635806|0.036964|-0.268309|0.923894|0.208348|-0.154895|0.361715|-0.898634|-0.805546|-0.631497|0.003272|-0.228933|0.942263|0.450671|-0.003969|-0.664239|0.417563|-0.267971|0.243734|0.236840|-0.493806|
# 9
-0.946904|0.792220|0.344480|-0.264076|0.283196|0.219773|-0.858433|-0.628205|0.638310|0.806007|0.342523|-0.616623|0.715726|-0.340039|0.260110|0.081382|-0.273835|0.421219|0.420939|0.713461|-0.810684|0.354419|0.203852|0.184625|0.709509|-0.410020|0.911979|-0.046757|0.743128|-0.581827|0.995875|0.879917|-0.802050|0.346957|-0.391700|0.493589|-0.458010|-0.242591|0.874674|-0.828478|-0.478027|0.274144|-0.422917|-0.763951|0.887178|0.783349|0.286377|-0.390275|0.185857|-0.269485|-0.668529|0.433991|-0.895738|0.503887|-0.450275|0.818219|-0.911011|-0.548390|-0.232986|0.920688|-0.115816|-0.257525|0.800605|0.083045|-0.918684|-0.107649|-0.461996|-0.397871|0.149323|-0.525753|0.064717|0.708637|0.723388|0.338052|0.944686|0.614640|0.158607|0.277999|-0.775635|-0.703086|0.976265|-0.444165|0.666690|-0.921507|-0.965357|-0.710770|0.892265|-0.846410|-0.263732|-0.340721|-1.287832|0.179491|0.375293|0.874883|-0.351735|0.181134|-0.708671|0.232124|-0.982991|0.504711|0.681368|-0.150258|0.851703|0.404757|-0.812206|0.119451|0.019396|0.298851|-0.637778|0.243761|0.599351|-0.663547|0.806656|0.262455|-0.980667|0.851649|0.478870|-1.274445|-0.987091|-0.681823|-0.033510|-0.955360|0.714984|-0.631756|0.962069|-0.636751|0.886417|-0.746602|0.491142|0.898712|0.718582|0.276742|-0.287947|-0.227560|-0.318502|-0.063751|-0.894245|0.700895|-0.762247|-0.626870|-0.067127|0.830865|-0.290417|0.057031|0.093320|0.124530|-0.396429|-0.433271|0.431741|-0.383521|-0.270821|-0.601769|-0.123625|-0.306710|-0.202047|-0.334265|-0.192589|-0.401110|-0.080866|-0.597215|-0.541521|-0.366871|0.679527|0.246056|0.530118|-0.494909|-0.817695|0.541026|-0.938080|-0.960106|1.272627|0.080611|-0.751729|-0.376260|0.750827|0.341591|0.748270|-0.645603|0.913781|0.180011|-0.012635|-0.357040|0.578242|0.674542|0.072736|-0.655282|-0.659722|1.280763|-0.056393|0.259411|-0.606305|0.441209|0.897127|0.976845|-0.312735|0.593061|-0.434754|-0.130429|-0.002346|-0.600211|0.286976|-0.117573|0.406365|0.535247|1.078756|0.157191|-0.123162|0.261796|0.511589|-0.256868|-0.540904|-0.517535|0.433580|-0.987311|-0.842992|-0.479298|-0.642593|-0.502714|-0.584764|0.301014|0.760182|-0.331330|-0.257777|0.653824|-0.258506|0.429489|0.081068|0.027269|-1.010229|-0.950661|0.435208|0.599196|-0.068234|-0.166577|0.121282|-0.562066|0.990614|0.998120|0.789409|0.502203|-0.211260|-0.873182|0.984277|-0.777681|-0.860493|-0.858323|-0.256979|-0.727638|-0.361038|0.158257|0.797928|-0.604341|0.895182|-0.427705|-0.950517|-0.413299|1.034538|0.130551|0.587479|-0.731301|0.179890|0.014537|0.854735|-0.888344|0.847960|-0.023983|-0.408104|0.838574|-0.025863|-0.758040|0.340777|0.762877|-0.495023|0.355940|0.985197|-0.491715|0.452662|-0.271782|0.005199|-0.893915|0.433484|-0.196873|-0.498256|0.757286|0.343279|-0.441967|-0.682504|0.312919|0.681777|1.517702|0.581618|-0.138333|-0.080488|0.436353|0.003908|-0.232528|-0.587630|0.522913|-0.393954|0.463116|0.764873|0.946823|0.149384|-0.866349|0.053713|0.134581|-0.203203|-0.260609|0.835921|0.647135|-0.154524|0.749273|-0.549737|0.347219|0.506559|0.777632|0.898445|0.824055|0.106460|0.580222|0.353275|-0.311922|-0.558277|-0.825747|-0.875569|0.415212|0.416013|-0.463200|-0.061875|-0.977942|0.923328|-0.297002|0.968881|0.072692|-0.163351|0.241150|-0.792728|0.478585|0.980542|-0.929929|0.096058|-0.173983|1.245972|0.575983|-0.826763|0.319591|0.369525|-0.928318|0.149959|-0.524015|0.651904|-0.121012|0.166419|-0.906207|0.527529|0.288494|0.509005|-0.038043|0.825295|-0.552870|-0.034400|0.764853|0.150127|-0.065518|-0.178706|0.986776|-0.824368|0.028566|0.462719|-0.843826|0.098637|-0.408919|-0.017809|-0.082019|-0.872018|0.155428|-0.756115|0.536590|0.227110|0.393843|-1.009933|-0.120986|-0.727169|0.176638|-0.027193|0.800361|-0.534867|-0.518188|-0.256097|-0.709573|-0.071058|0.740047|-0.960971|-0.920931|-0.356015|-0.139677|-0.923722|-0.180383|0.888889|0.579368|-0.024209|-0.012475|-0.877713|0.957982|0.905507|-0.710648|0.113410|-0.850608|0.825942|-0.659480|0.543235|0.838517|0.219534|0.816066|0.002067|-0.807659|0.616427|0.480287|-0.371223|-0.639670|0.795422|0.603096|-0.930167|0.809744|0.682165|-0.286182|-0.329934|0.748010|0.533435|-0.441045|0.279216|-0.490773|0.546481|0.401504|-0.532791|0.451987|0.690856|0.563451|0.601379|0.516797|0.929076|0.119160|0.355314|0.140672|-0.039320|-0.629531|0.333013|-0.422893|0.850756|-0.992834|-0.062563|0.621471|0.610262|0.007270|0.431215|0.292426|0.721088|-0.898719|0.040436|0.254523|-0.286861|-0.680348|0.780074|-0.793283|0.721156|-0.769042|0.658704|0.412012|0.811577|0.260083|-0.071191|0.732715|-0.595304|-0.715877|-0.126614|0.365376|-0.345408|-0.793601|0.942483|-0.494652|-0.786435|-0.120080|-0.873181|0.805046|0.894403|0.558033|0.116254|0.608278|0.659314|-0.843310|-0.137199|-0.680450|-0.523657|-0.373449|-0.473733|-0.802501|-0.142491|-0.815029|0.609510|-0.330914|0.445053|-0.461681|-0.598199|0.849750|-0.177558|0.275187|0.215939|0.477034|0.481586|0.157609|0.982382|0.695152|-0.962470|-0.890800|0.518979|0.924720|0.667234|-0.364768|0.532998|0.326548|-0.208078|-0.604201|0.646099|0.268265|0.022349|-0.827634|0.465763|0.879859|-0.642664|0.068469|-0.451055|0.802390|0.613593|-0.049255|0.652139|-0.563965|-0.774068|-0.132735|0.913068|0.707519|-0.975125|0.895450|0.402671|-0.937596|-0.995350|-0.078351|0.987124|0.671884|0.556882|0.520121|-0.001568|-0.651196|0.915920|-0.355469|0.617069|-0.061730|-0.183104|0.082833|-0.181872|0.174233|-0.841894|0.367073|-0.023377|0.771699|-0.682182|-0.371238|-0.792267|-0.456250|0.496027|-0.879198|-0.748731|0.520902|-0.983748|0.653940|0.583306|-0.979098|-0.424411|0.570430|0.692787|-0.867529|0.090551|-0.308781|-0.518725|0.006471|0.335750|-0.901656|0.944741|-0.847354|0.181177|-0.237131|0.326879|0.339283|-0.870059|-0.696499|0.110982|-0.552241|-0.067737|0.318715|-0.008490|-0.571709|0.439517|0.242779|0.949192|0.455769|-0.103282|0.532498|0.476671|0.472307|0.102927|0.169458|0.604778|-0.806522|0.860677|-0.913947|0.199949|0.196426|-0.815603|0.144690|0.349072|0.365573|0.907559|-0.324049|-0.295144|-0.962500|-0.020547|0.815838|-0.514741|0.911716|0.134553|0.476769|-0.659993|-0.425930|-0.280453|-0.710801|-0.970162|0.616266|0.821697|0.506509|0.088573|-0.075376|-0.324033|-0.306649|0.118103|-0.463356|-0.220596|-0.681948|0.733070|-0.036200|0.462742|0.082142|-0.670626|0.370300|0.758093|0.034230|0.407800|-0.262454|-0.149932|0.893059|-0.350738|0.984621|0.369828|-0.010731|-0.441310|-0.910625|0.278468|-0.411471|0.705641|0.100165|-0.904962|-0.205787|-0.975211|-0.228995|0.487564|0.142892|0.307648|-0.733032|0.460944|0.040718|0.230768|-0.076315|-0.877140|0.560142|-0.706014|0.880954|-0.405628|0.701786|-0.381500|0.444440|0.594845|0.267762|0.429061|-0.035327|-0.742968|0.987751|0.054048|0.535500|-0.423720|-0.240312|-0.364335|-0.328683|0.553902|-0.339546|0.442322|0.041466|0.803346|-0.250029|0.308434|0.264289|0.790689|-0.460798|-0.812026|0.913549|-0.900656|-0.518040|0.794503|-0.306283|-0.816254|-0.586997|-0.861843|0.778590|0.680766|0.567218|-0.256737|0.937797|0.554969|0.797311|0.473297|-0.868752|-0.443001|-0.891038|-0.197434|-0.889099|-0.230585|-0.755112|0.152367|-0.427239|-0.005141|-0.539199|0.837050|-0.214452|0.000003|-0.974976|-0.300903|0.099347|-0.493016|-0.506400|0.793064|-0.309270|-0.093397|0.931221|-0.530680|-0.412631|0.498439|0.212583|-0.474834|0.053408|0.009894|0.998463|0.184656|0.566893|-0.892576|0.987222|0.677794|-0.123160|-0.767890|-0.169840|0.449601|0.226969|0.290961|0.286651|-0.987483|-0.709036|0.311675|-0.288386|0.390311|0.818659|0.205214|0.183375|-0.490611|-0.888183|0.114596|-0.021290|-0.300814|-0.386966|
# 10
0.224351|0.666442|0.201187|0.222814|-0.148902|-0.231920|0.330238|-0.161680|-0.579182|-0.803398|0.078611|0.285729|0.665079|-0.699793|-0.499692|-0.037441|-0.694792|-0.139184|-0.733886|0.010789|-0.741008|-0.943275|-0.824513|0.456735|-0.416947|-0.661438|-0.453760|0.561763|0.079005|0.159274|0.721751|-0.737901|-0.200060|-0.046379|0.511301|0.676814|0.724986|-0.184849|-0.499392|-0.824375|0.030613|0.585565|0.465784|-0.321092|0.904754|-1.018493|0.591146|-0.807119|-0.130815|0.877241|0.214412|0.124068|0.950904|0.441157|-0.450901|-0.349486|0.789049|0.082477|-0.904280|-0.182534|-0.756719|0.848776|0.079565|0.088672|-0.204267|-0.821990|-0.218855|-0.474657|0.406246|0.269122|-0.799255|-0.598141|-0.142158|-0.862229|0.080767|-0.259193|-0.858482|-0.395145|-0.066312|0.018183|-0.427774|-0.851900|-0.864363|-0.468851|0.613538|-0.371249|0.065106|0.368975|0.759461|0.160826|-0.530341|-1.104456|0.044809|0.266007|0.115015|1.217335|0.830485|0.872158|-0.505673|0.019979|0.144435|0.031504|0.346780|-0.997723|0.169276|-0.302853|-0.256917|0.318273|0.395744|0.676771|-0.665300|0.975989|0.745389|-0.527907|-0.137725|0.401492|0.156828|0.623879|-0.216897|0.249786|-0.266931|0.162091|-0.028412|0.742671|-0.764448|-0.913397|0.549253|-0.933963|1.086302|0.893257|0.276152|0.103196|-0.082937|-0.099634|0.105473|-0.905963|1.007565|0.848556|0.434205|-0.023390|0.519753|0.748766|-0.047401|0.433076|-0.779142|0.459737|-0.235674|0.384236|0.031980|0.547429|-0.685412|0.765050|-0.998443|0.573887|0.507210|-0.247475|0.372779|0.063014|-0.181438|0.331540|-0.021104|-0.903794|-0.565264|0.881032|-0.017161|0.699670|0.975069|-0.436295|0.388765|0.688711|1.042117|-0.670608|0.136144|-0.507085|-0.735710|0.357002|0.952651|0.028616|-0.265311|-0.015369|-0.437220|0.049277|-0.250319|0.093018|-0.675345|-0.742598|0.845543|0.208745|0.320416|-0.335895|-0.382461|-0.723314|-0.241182|0.474509|-0.842282|0.520414|-0.274139|-0.867213|-0.743049|-0.596518|0.520165|0.845678|0.317574|-0.343691|-1.355155|0.581864|-0.986688|-0.687636|-0.389520|-0.172817|0.283798|0.186525|0.797278|-0.974444|-0.720457|-0.867269|-0.717042|-0.874914|0.840964|0.603374|-0.227728|0.049758|0.880060|0.548008|-0.796393|-0.962222|0.289666|0.369964|-0.659197|0.595028|0.745782|0.665581|0.440706|0.091020|-0.652961|0.779299|-0.327116|-0.639649|-0.915710|0.283365|0.108352|0.346418|-0.528015|-0.094370|0.371974|-0.250568|0.038361|0.825006|-0.125482|-0.120675|0.258306|0.663708|0.795759|0.164682|0.211716|-0.934764|0.073936|-0.498618|0.485271|0.346708|-0.903590|0.258717|0.037438|0.537116|-0.650263|0.384478|0.558386|0.022621|0.744829|0.386958|-0.694014|-0.146819|-0.358671|-0.279990|0.758811|-0.894650|0.518129|-0.202828|0.760283|-0.600175|1.021286|0.018589|-0.936467|0.436558|-0.843045|0.590580|0.551865|0.333098|0.776630|-0.233483|-0.320193|0.873040|-0.704147|0.717245|0.396836|-0.354410|0.101723|-0.273430|0.668211|-0.183335|-0.886472|0.974197|0.699733|-0.153097|0.165238|0.458544|0.265462|-0.724620|-0.745150|-0.287463|-0.324795|0.932211|0.731125|-0.261263|0.368769|0.901745|-0.986014|-0.079366|0.221178|0.790616|1.172151|0.900985|0.664464|-0.436288|0.618230|0.073811|-0.100787|-0.280047|0.800381|-0.432576|0.568985|0.913909|-0.458379|0.266238|-0.239188|0.291694|-0.275219|0.713066|0.567074|-0.019503|-0.544057|-0.757721|-0.814705|-0.843272|-0.018984|-0.724139|-0.955192|-0.004998|0.202111|0.265986|-0.214382|0.159881|0.175937|-0.550726|0.413504|-0.214798|0.523085|-0.745682|0.505155|0.323466|-0.119860|0.068845|0.237375|0.421762|-0.662102|0.998187|-0.286545|0.062679|0.725914|-0.719471|-0.956824|-0.863145|-0.477192|-0.044116|-0.691672|0.503825|0.237362|-0.661610|-0.501173|-0.560527|0.619974|0.284445|0.599354|-0.228652|0.733719|0.012858|0.556550|0.256805|0.325575|0.061705|-0.419729|-0.821649|-0.866635|0.817645|0.627477|-0.528737|0.825813|-0.659067|0.533942|0.533013|-0.378538|0.577118|0.663939|0.144270|-0.466998|0.957521|-0.351905|0.770364|-0.704088|0.146922|-0.790163|0.900288|-0.568633|0.809191|-0.340061|-0.834913|-0.177951|-0.771813|0.404830|-0.852375|0.316354|-0.997838|-0.646660|0.423257|0.819807|0.980817|0.894520|0.635639|-0.678250|0.428461|0.162724|-0.056788|0.005579|-0.173338|-0.912518|0.538581|-0.215816|-0.252564|0.308945|0.080096|0.888499|0.519455|-0.019616|-0.686134|0.327972|0.652021|-0.521047|-0.849978|0.880208|0.900844|-0.702354|0.170100|0.903006|-0.349014|-0.406644|0.722814|-0.368197|-0.512124|0.358453|-0.046447|0.909826|-0.478823|0.927054|-0.078083|0.347839|0.984247|-0.539502|-0.867977|-0.280176|0.769442|0.212119|-0.397677|0.288224|-0.807497|-0.083811|-0.383804|0.844523|0.395142|-0.233782|0.724731|0.295987|0.063864|-0.105170|0.184512|0.687946|0.488187|-0.078193|-0.653346|0.976063|-0.719740|0.300207|0.892400|-0.198563|0.196972|-0.185683|-0.850724|0.181218|0.274814|-0.718701|0.901042|0.044257|0.493418|-0.496635|-0.667519|0.685920|0.419554|-0.056486|0.530443|-0.185304|0.714895|0.255174|-0.889317|-0.221241|-0.849995|0.309676|-0.506391|0.638192|-0.768517|-0.159737|0.614255|-0.488257|-0.859530|0.506655|0.313180|0.337442|-0.679028|0.462457|-0.481340|0.595786|0.760182|-0.580297|-0.359957|0.237173|-0.076932|-0.027476|-0.076907|-0.657378|0.921201|-0.546463|0.157318|0.636095|0.708711|0.268001|-0.585146|0.858716|-0.422323|-0.091537|0.496908|-0.190840|0.748727|0.111163|0.320904|0.889197|-0.382182|-0.365916|0.226639|-0.061210|-0.903459|0.745300|-0.465424|0.840296|-0.834998|0.174620|0.077470|0.088070|-0.852856|-0.999437|0.430691|-0.931656|-0.545900|-0.411991|0.704439|-0.837188|0.856010|-0.880707|-0.978472|-0.566313|0.027757|0.518436|0.242847|-0.223516|-0.370401|-0.436249|-0.334319|0.247417|0.197835|0.892320|-0.813793|0.294376|0.637619|-0.279217|0.134672|0.802621|0.895403|-0.787858|-0.109309|-0.957454|-0.787295|-0.678617|-0.889109|-0.333194|-0.090608|0.815330|-0.170383|-0.234598|0.934624|-0.148855|0.199089|-0.037620|-0.630419|-0.558064|0.738864|-0.000820|0.005687|-0.595456|-0.753404|-0.796478|-0.703136|-0.567197|0.497898|0.934483|0.153586|-0.367430|0.737105|0.048989|-0.155287|-0.372204|0.091535|0.057418|-0.050821|0.202426|0.724224|0.858571|0.017756|-0.446159|-0.376027|-0.047621|0.404986|0.823062|0.914760|0.774567|-0.735002|0.653624|-0.226254|0.270685|-0.941832|0.020343|0.474207|-0.644968|0.453145|-0.027895|-0.710484|-0.393269|0.604676|-0.973379|0.655720|-0.550612|-0.345583|-0.252745|0.506806|0.603596|0.949681|0.231030|0.462167|-0.032563|0.784870|-0.913861|0.919816|0.189856|0.909201|0.834576|-0.035577|-0.825801|0.488199|0.738169|0.444883|0.546368|-0.241489|-0.080910|0.901400|-0.788343|0.891196|-0.809084|-0.181612|0.495871|-0.782463|-0.525892|0.945260|-0.128046|0.221363|0.452066|-0.524450|0.171044|-0.316905|0.937716|-0.861519|-0.532034|-0.976145|-0.941703|0.657822|0.933056|0.892872|-0.377756|-0.892745|0.381072|-0.639587|0.552138|-0.072560|0.118925|-0.528771|-0.171160|0.330582|-0.637576|0.019756|-0.851030|0.858296|0.237292|-0.376922|0.803555|-0.890754|0.844442|0.255621|-0.415204|0.015486|0.938716|-0.477488|0.153966|-0.593318|-0.453633|0.212263|-0.935496|-0.520576|0.105135|-0.313252|-0.413321|-0.513793|0.047161|-0.861183|0.413647|-0.833914|-0.389954|-0.757514|0.496668|-0.027530|0.262242|0.645637|-0.169234|-0.500466|-0.731284|-0.365679|-0.391220|-0.886843|0.889942|0.193576|0.128643|0.828659|0.716087|-0.717391|-0.764659|-0.737545|0.494873|-0.700156|-0.258122|-0.399992|-0.013407|0.328557|0.086215|-0.966246|0.467374|-0.500138|-0.800160|-0.922581|-0.257651|0.696507|0.049890|-0.995409|0.342145|0.880656|-0.495875|0.610860|-0.485023|0.112905|0.724018|-0.595081|
# 11
-0.147339|-0.766422|-0.977432|0.135270|-0.531082|-0.714977|-0.369857|-0.231237|0.040821|0.213684|0.764625|-0.643685|-0.656809|0.811457|0.773756|-0.176507|0.935768|0.924856|0.542889|0.680207|-0.045988|0.583852|0.006293|-0.151297|-0.932707|-0.361538|0.345773|0.180198|-0.643156|0.750692|0.476786|0.215140|0.978394|0.530060|-0.630560|-0.546812|0.762651|-0.019447|0.224908|-0.187624|-0.782969|-0.022694|0.180559|-0.472930|-0.243176|-0.035783|0.322797|-0.244636|-0.100289|-0.098124|-0.559179|0.872972|-0.534956|0.468422|-0.319352|-0.441355|-0.898232|-1.028229|0.712534|-0.530636|0.758743|0.199213|0.684504|0.793103|-0.300817|-1.263447|-0.729140|-0.497271|0.028965|0.421416|-0.230631|0.226172|-0.586174|-0.499472|0.753243|0.180242|0.568127|-0.060986|0.935606|-0.600300|0.967679|-0.623573|-0.750449|-0.536539|0.836210|-0.858257|-0.004203|0.951733|-0.077742|-0.291669|-1.267201|-1.086819|0.905751|-0.894399|-0.504885|-0.868631|-0.859484|-0.290316|-0.269551|-0.287477|-0.853795|-0.557368|-0.568642|-0.439969|-0.056840|-0.888747|0.740273|-0.556851|0.231940|0.675879|-0.164598|0.230357|-1.255179|0.092400|0.555424|0.878394|-0.977401|-0.168171|0.848888|-0.121756|0.397947|-0.871052|0.712952|0.305491|-0.624413|-0.791934|0.941882|-0.483897|-0.567309|0.040227|0.672087|0.063956|0.488477|-0.883914|0.623987|-0.573981|-0.984405|0.364260|-0.121256|0.421583|0.030171|0.712017|-0.348060|0.167125|-0.195583|-0.654241|-0.010402|-0.169722|0.035374|-0.161514|0.806235|-0.566678|0.185280|0.787451|0.735177|0.484057|0.727253|0.660308|-0.999840|-0.354996|-0.273884|0.673207|0.708959|-0.816605|0.726490|0.726776|-0.390586|0.916133|-0.302795|1.234941|0.824380|0.609185|0.190599|0.989655|-0.170213|0.995015|-0.664586|0.819385|-0.177969|0.370788|-0.444492|-0.371734|0.804110|0.766342|-0.868816|0.542923|0.250399|0.992447|0.203231|0.250559|-0.993479|0.903767|-0.077194|-0.771332|-0.912839|-0.855342|0.215077|-0.303425|-0.458150|-0.741180|-0.824842|0.903145|0.996163|0.365756|1.283301|-0.174050|0.360772|-0.756122|-0.354665|-1.422301|0.625569|0.303206|-0.188932|0.403112|0.069548|-0.041479|-0.053964|-0.680054|-0.166774|-0.850733|0.560104|1.044470|-0.946966|-0.506688|0.055398|-0.859805|0.142608|0.143218|-0.738151|0.708038|0.378753|-0.013460|0.611182|0.398200|-0.622315|0.503982|-0.775849|0.738456|0.906890|-0.130514|0.921259|0.331199|-0.812935|-0.267673|-0.265689|0.242239|0.690848|0.431655|0.562186|-0.475925|0.829614|0.132691|0.891282|0.911650|0.626003|0.617572|-1.391795|-0.231389|-0.398168|-0.140385|-0.523352|-0.996131|0.871543|-0.912169|0.402069|-0.750772|0.608274|0.626220|0.987684|0.324010|-0.504295|0.908943|-0.309780|-0.374741|-0.358730|0.389520|0.908199|-0.667882|0.069867|0.472822|0.049079|-0.100518|-0.394487|-0.266797|-0.217870|-0.212511|-0.808183|-0.195026|0.000127|-0.417297|0.664589|0.476775|-0.202482|0.536132|0.572169|-0.800413|0.785360|0.156420|0.825806|0.817039|-0.519571|-0.678488|0.681986|0.135638|0.236852|-0.676744|-0.007331|-0.099455|-0.298799|0.595026|-0.626633|0.511568|-0.505492|-0.021119|-0.755228|0.324333|0.210397|-0.563411|-0.918388|-0.789476|0.539509|0.746201|0.684329|-0.594064|0.282333|0.251906|-0.772658|0.067692|-0.591675|-0.946852|-0.163728|-0.111246|-0.625340|-0.477278|-0.975607|0.364569|-0.154021|-0.450449|-0.734886|0.501354|-0.851328|-0.361519|-0.569729|-0.360915|0.617362|0.250885|0.915723|-0.172241|0.694282|0.997335|0.038283|-0.075480|0.780081|-0.274418|-0.047724|0.025869|0.977487|0.070657|-0.906438|-0.614188|0.232766|-0.120897|0.274567|0.607426|0.457020|0.298959|-0.028005|-0.697001|0.839789|0.237109|0.804352|0.993087|0.875590|-0.182726|-0.321429|0.492952|-0.925032|-0.452105|-0.679289|0.769250|-0.398973|0.358993|-0.306230|-0.711233|-0.915425|0.646046|0.314636|-0.937937|-0.174336|0.408198|-0.552125|-0.943032|-0.657505|0.722442|0.665856|0.799515|0.016925|-0.362149|-0.897486|-0.108871|0.874960|0.906866|-0.137001|0.750550|-0.275860|0.495171|0.243502|-0.200892|-0.956934|0.564213|-0.431642|-0.411704|-0.076794|0.262129|-0.128238|0.007781|-0.091825|-0.808302|0.076444|0.733839|0.612049|0.517719|0.792269|0.942391|0.240161|0.458125|0.741906|-0.738438|-0.904024|0.844420|0.131473|0.970935|0.751286|0.994472|0.721485|-0.524574|0.489643|-0.028703|0.274534|0.532708|-0.498796|0.865034|-0.878996|0.452406|0.105022|-0.001934|-0.539812|-0.986803|0.189764|0.530032|0.747035|-0.210340|0.047751|0.539304|-0.267949|-0.712089|-0.002571|-0.526043|-0.450527|0.093405|-0.653818|0.680947|0.114058|-0.930337|0.675419|-0.214175|-0.454910|0.165061|0.750812|0.819624|-0.302231|-0.719988|0.662517|-0.181227|0.732418|-0.232461|0.816839|-0.807394|-0.219265|0.006604|0.722637|-0.472229|0.796264|-0.226104|-0.956418|-0.471685|0.058299|0.064504|0.002273|0.607773|-0.842092|0.320650|0.288719|0.222248|0.390313|-0.035862|-0.991927|0.935403|-0.870801|0.758885|0.755027|-0.173032|-0.961103|0.417544|0.645741|0.771315|-0.827282|0.462580|0.963921|-0.034182|-0.530816|0.686558|0.493589|-0.734552|-0.543054|0.560664|-0.206237|0.515246|-0.374832|0.796036|0.123018|-0.216924|0.116686|-0.588262|-0.994676|-0.493001|0.375875|-0.986603|-0.557598|0.541654|0.772283|-0.802571|-0.667958|0.811180|0.614974|0.977783|0.582495|0.800057|0.440364|0.546416|-0.234125|0.909548|0.232974|-0.740536|-0.825004|0.689920|0.820128|-0.031241|0.205166|-0.554705|-0.235205|-0.671816|0.228372|0.881481|-0.260078|0.233696|-0.611520|-0.884203|0.247093|-0.169118|0.620872|0.019376|0.028311|0.952914|-0.169444|-0.356715|0.930697|-0.586949|-0.556659|0.371061|0.959467|0.209216|0.280609|0.192441|0.468680|0.455605|-0.117639|0.288807|-0.575636|-0.912473|0.734103|0.189159|-0.584289|-0.037525|0.070639|0.155633|-0.803830|0.459119|0.271431|0.443264|-0.709999|-0.107697|-0.537360|0.318312|-0.154784|0.293195|0.961596|-0.224086|0.706246|-0.595063|-0.853025|0.665713|0.614153|0.427584|-0.141847|0.082833|-0.116811|0.740514|-0.628360|0.307552|0.828041|-0.894257|-0.503289|-0.756247|0.068218|0.567350|0.399386|0.264388|0.026469|-0.329183|-0.292348|0.316469|0.563120|0.170292|-0.365219|-0.591664|-0.536513|-0.403623|0.184250|-0.830267|0.001314|0.331225|0.835445|-0.384532|-0.241191|-0.306401|0.698301|0.641997|-0.565887|-0.930059|-0.050450|-0.737846|-0.824316|0.446260|-0.494093|0.243902|0.013610|0.905293|-0.491710|-0.959921|-0.423889|0.215942|0.356548|-0.860770|-0.613767|0.991329|-0.452434|-0.150280|-0.412294|0.731816|0.019453|0.589021|0.063041|-0.145102|-0.795512|0.821850|0.548497|0.902789|0.463847|0.982610|0.972730|-0.586603|-0.755236|-0.851586|0.859657|-0.249329|0.392315|-0.126732|-0.344035|0.900605|-0.086654|0.232075|0.116547|-0.730105|0.371305|0.502780|-0.738776|0.918872|-0.647500|-0.151070|0.650688|0.371953|-0.562049|-0.286271|-0.773148|-0.357561|-0.464421|0.775348|-0.454772|0.999427|0.757958|-0.482042|-0.587177|-0.997278|-0.333628|-0.727519|-0.246606|-0.941313|0.145748|0.409358|0.959292|-0.940905|-0.358566|0.075839|-0.671010|-0.987261|-0.421380|-0.409787|0.931611|-0.068880|0.439144|0.582299|-0.696927|0.877095|-0.703972|-0.470075|-0.480466|-0.168393|-0.694727|0.064762|-0.168966|-0.936768|0.582720|0.243857|-0.934046|-0.750909|0.516338|-0.180652|-0.692222|-0.337914|-0.771294|-0.732929|-0.278819|-0.129860|0.342910|0.050170|-0.117121|0.921530|0.640384|-0.185510|-0.147351|0.079528|-0.603212|0.155723|-0.043378|-0.307184|0.685647|0.476156|0.524423|0.990921|-0.459082|-0.644543|-0.945848|-0.876362|0.599314|-0.879894|-0.627271|0.115651|-0.060546|-0.319492|0.777737|0.168160|-0.052422|-0.501082|-0.961700|-0.709512|0.549089|-0.078821|-0.787982|0.189473|0.735668|0.064667|-0.731000|-0.867543|
# 12
0.225622|-0.174727|0.906037|-0.298222|-0.650304|0.896958|0.242696|-0.294848|0.981189|0.343467|-0.698821|-0.926137|0.742920|0.425278|0.046269|-0.583611|0.229418|-0.823866|0.371863|0.724526|-0.810746|0.668467|0.283088|0.127470|0.869655|-0.564666|-0.126023|-0.065677|-0.265588|0.006433|0.176864|0.929957|0.833779|0.057561|-0.375683|-0.818599|-0.035737|0.874431|-0.099635|-0.082737|0.248159|0.191019|-0.013554|-0.020172|-0.385395|0.998232|0.437459|0.808991|-0.830467|-0.233452|0.505764|-0.626432|-0.575814|-0.248375|0.524971|-0.727749|0.195803|-0.589367|0.228164|0.891294|0.408433|-0.617123|0.821251|0.296628|0.505652|-0.515736|0.436607|-0.598665|-0.662894|-0.715863|0.477102|0.568182|0.496060|-0.709814|-0.451990|-0.892804|-0.744219|0.992197|0.916187|-0.549578|-0.296323|0.421951|-0.162916|0.138144|-0.832514|-0.498077|0.431985|0.360536|-0.262897|-0.339850|0.504756|-1.053873|0.059150|0.073081|0.403468|-0.306010|0.526066|-0.178045|0.063785|0.991960|0.126995|-0.801860|0.243954|-0.376946|-0.511674|1.015466|-0.269750|-0.230785|0.917084|-0.353563|0.213454|-0.368958|-0.908347|-0.943280|1.196855|-0.752816|-0.581225|0.302947|0.602499|0.024933|0.861321|-0.103294|0.346158|-0.095652|0.927410|-0.250374|0.365401|0.453476|0.536424|-0.721011|0.306959|-0.301425|-0.531957|0.109582|0.321630|-0.034545|-0.326770|-0.948120|0.741311|-0.384616|-0.296910|-0.045694|0.246426|-0.192391|0.011027|0.015612|0.008668|0.429721|-0.783217|-0.388832|-0.390422|-0.921896|0.726401|0.965129|-0.002488|0.392907|-0.294638|-0.626547|-0.153617|-0.723057|-0.349416|-0.848274|-0.024482|0.129572|-0.118033|-1.109695|-0.904973|0.580266|-0.650972|1.303879|-0.860036|0.436155|-0.215996|0.442075|0.814051|0.795030|-0.542313|-0.177281|0.224832|-0.325530|0.454461|0.834410|-0.247426|-0.100616|0.804541|0.735026|-0.707709|-0.160271|-0.891521|0.138674|0.085536|-0.239079|0.292016|0.747970|0.890493|-0.075735|-0.262303|0.985520|0.771430|-0.605853|0.815218|0.949898|0.441493|-0.400779|0.333450|0.255543|-0.605748|0.849784|-0.921738|0.938365|-0.454968|0.512149|0.453494|0.276703|-0.588467|0.243641|0.011729|-0.296176|0.739150|0.120207|0.827724|-0.506436|0.881129|0.134513|-0.722213|0.771622|0.308496|-0.695309|0.908726|0.062744|-0.299205|0.599879|0.012642|-0.859669|-0.828419|-0.595385|0.395874|-0.434167|-0.533254|0.474137|-0.815083|-0.221596|0.002895|0.638411|-0.944893|0.397819|-0.117948|-0.260202|-0.898357|-0.378798|-0.812957|0.944140|0.112796|-0.924168|0.078653|0.868259|0.667118|-0.612851|0.697067|0.596935|0.449894|-0.604095|0.169295|-0.537464|-0.463764|0.340876|-0.675790|0.932110|0.906709|0.121426|0.406247|-0.908375|1.167201|-0.558595|0.730036|0.954937|0.784873|-0.387912|0.021773|0.891995|0.214402|0.208816|0.836135|-0.633906|0.276988|-0.175402|0.758470|0.116782|0.301937|0.246631|-0.286283|-0.248169|0.851443|0.883012|0.179673|-0.612321|0.223888|-0.918482|-0.680211|0.126070|0.202944|0.726036|0.222222|0.102773|-1.352847|-0.047742|-0.019167|0.908921|0.653859|-0.920517|0.800916|-0.202365|0.288300|0.637050|0.163729|-0.419617|-0.448162|-0.077801|0.682070|0.853776|-0.643460|-0.604213|-0.393390|-0.840781|-0.721201|0.819973|-0.383143|0.502687|0.901491|-0.063353|-0.359078|0.104435|-0.337317|0.855505|-0.792792|-0.218748|-0.192237|0.264918|-0.309827|-0.627891|0.370034|-0.508911|0.533322|-0.367299|-0.871861|-0.665308|0.197989|-0.320023|0.255672|-0.119941|-0.466247|0.633408|0.261950|0.139359|0.862586|0.554645|-0.040667|-0.515243|0.057332|-0.139176|0.416091|0.708470|0.965258|-0.921226|0.546120|-0.827534|-0.139974|-0.646116|0.437857|0.550199|-0.274008|-0.218214|-0.958712|0.895737|0.434768|-0.830573|-0.770790|-0.387524|-0.150596|0.484882|0.534930|0.383157|0.118290|-0.231620|-0.477484|-0.019124|-0.676976|0.481849|0.460320|0.380356|-0.657328|-0.097827|0.070971|-0.692070|-0.044815|-0.382908|-0.483161|0.815211|-0.029025|0.927351|0.365410|0.696968|-0.300434|0.406697|0.592704|-0.885947|0.576124|0.821914|-0.273471|-0.574472|0.306796|-0.780937|0.808685|-0.574914|-0.020394|-0.668799|0.405962|0.310467|0.795322|-0.133718|-0.332146|-0.844277|0.742693|0.761794|-0.536347|-0.302123|-0.621114|-0.055951|-0.486912|0.349861|-0.138170|0.878497|0.046829|0.561396|0.285195|-0.360467|0.675450|-0.121833|-0.538553|-0.598021|0.296348|0.759668|-0.378958|0.095533|-0.806672|0.608485|0.426734|0.599290|-0.081048|0.239784|-0.534428|0.609775|0.395507|-0.791736|0.371569|0.859160|-0.093858|0.750455|-0.196791|0.419229|0.061335|0.665039|0.268137|-0.852855|0.226436|-0.417079|-0.213322|-0.098115|0.444240|0.248125|0.303864|-0.268912|0.016367|0.924906|0.826620|0.209696|0.533390|0.253354|-0.191014|-0.547658|-0.506861|0.274558|-0.937883|0.890971|0.497496|0.433686|0.747805|-0.611036|0.184141|-0.448986|0.808193|-0.715543|-0.783946|0.105919|-0.568399|0.442489|0.688841|0.218279|-0.655625|0.133081|-0.533597|0.648239|0.864169|0.482771|0.573145|0.690789|-0.306825|0.106535|-0.055857|0.501452|0.558877|0.437281|-0.223990|0.620994|0.325927|-0.741168|0.054680|0.073732|-0.352204|-0.761180|0.624746|-0.544011|-0.476723|0.840800|0.561908|-0.045122|0.283289|0.250749|-0.826843|0.637053|-0.616170|-0.360439|0.275903|-0.752001|-0.877669|-0.150952|0.938787|-0.185202|0.955583|-0.117070|-0.683750|0.514460|-0.679788|0.092260|0.135453|0.646138|0.351093|-0.809867|-0.280130|0.998889|-0.571047|-0.655383|-0.545122|-0.047770|-0.814583|-0.983214|0.907108|0.468706|0.267535|-0.919734|0.096370|0.651365|-0.280174|-0.627727|0.899364|-0.157842|0.221321|0.838151|0.656955|0.176903|-0.278919|0.973206|-0.308637|0.041293|0.065466|0.826816|-0.312569|-0.583441|-0.983051|0.407301|-0.584552|-0.554098|0.751918|-0.129675|0.398132|0.937335|-0.112889|0.305240|0.406040|-0.845354|0.385506|-0.497590|0.806011|-0.894668|-0.125317|0.705375|-0.052510|-0.903996|0.543526|-0.395555|0.272907|-0.735393|-0.422349|0.964270|0.305899|0.643117|0.791086|0.993330|-0.940324|0.808035|0.400631|-0.524877|-0.746064|0.152549|0.345449|0.652068|0.089884|-0.767440|-0.042692|-0.504076|-0.612794|-0.657186|-0.001665|-0.806783|-0.551854|0.873018|0.898592|0.395635|0.969022|0.442117|-0.999920|0.241929|0.706724|-0.422269|0.206200|0.012623|-0.779152|-0.002714|0.005953|-0.719476|-0.194680|-0.593416|-0.244353|0.059257|0.559133|-0.898904|-0.288675|-0.350983|-0.666344|0.668633|0.144941|-0.279139|-0.988553|-0.856725|-0.085922|-0.540407|-0.983707|-0.187330|0.855228|0.985316|-0.745213|0.855309|0.227245|0.961511|-0.566960|-0.566556|-0.025867|-0.346112|0.430730|0.980086|-0.065588|-0.763950|-0.613330|0.690059|0.295307|0.945804|0.791155|-0.993368|-0.405180|-0.875189|0.675265|0.739761|-0.154328|0.686712|0.883037|0.759750|-0.853695|0.899330|-0.427580|-0.998466|0.884646|-0.172794|0.856842|0.111891|-0.211283|-0.710118|0.545335|0.762850|-0.056231|-0.023935|0.742937|0.878181|0.212116|-0.870393|0.568240|-0.492577|-0.924589|0.359396|-0.485945|-0.329769|0.484206|-0.810680|-0.590008|-0.670122|0.876033|-0.706971|-0.910372|-0.977662|-0.807640|-0.337952|-0.976128|-0.922995|0.489254|0.880714|0.188896|-0.722029|-0.829404|-0.265769|-0.959178|0.114365|0.710297|0.783759|-0.007454|-0.077588|0.913366|-0.439213|0.429835|0.988776|0.920182|0.943890|-0.340993|0.404389|-0.866789|0.069000|0.734267|-0.990756|0.362029|0.823895|-0.968418|0.554388|-0.514057|-0.944546|0.631394|0.975197|0.936168|-0.179710|-0.746831|-0.893237|0.554521|-0.706009|0.221128|0.264818|-0.922251|-0.786326|-0.812770|0.991115|-0.225539|0.617065|0.979891|-0.305357|0.560955|-0.361102|-0.900968|0.694166|0.707898|0.833299|0.703410|0.069927|0.657194|0.734992|-0.375685|-0.856863|0.790445|-0.744291|
# 13
